{"learner":{"attributes":{},"feature_names":["home_odds","draw_odds","away_odds","home_implied_prob","draw_implied_prob","away_implied_prob","odds_gap","implied_prob_diff","asian_handicap","handicap_magnitude","over_odds","under_odds","over_under_bias","odds_ratio_home","odds_ratio_away","home_favorite","clear_favorite","days_since_epoch"],"feature_types":["float","float","float","float","float","float","float","float","float","float","float","float","float","float","float","int","int","int"],"gradient_booster":{"model":{"gbtree_model_param":{"num_parallel_tree":"1","num_trees":"200"},"iteration_indptr":[0,1,2,3,4,5,6,7,8,9,10,11,12,13,14,15,16,17,18,19,20,21,22,23,24,25,26,27,28,29,30,31,32,33,34,35,36,37,38,39,40,41,42,43,44,45,46,47,48,49,50,51,52,53,54,55,56,57,58,59,60,61,62,63,64,65,66,67,68,69,70,71,72,73,74,75,76,77,78,79,80,81,82,83,84,85,86,87,88,89,90,91,92,93,94,95,96,97,98,99,100,101,102,103,104,105,106,107,108,109,110,111,112,113,114,115,116,117,118,119,120,121,122,123,124,125,126,127,128,129,130,131,132,133,134,135,136,137,138,139,140,141,142,143,144,145,146,147,148,149,150,151,152,153,154,155,156,157,158,159,160,161,162,163,164,165,166,167,168,169,170,171,172,173,174,175,176,177,178,179,180,181,182,183,184,185,186,187,188,189,190,191,192,193,194,195,196,197,198,199,200],"tree_info":[0,0,0,0,0,0,0,0,0,0,0,0,0,0,0,0,0,0,0,0,0,0,0,0,0,0,0,0,0,0,0,0,0,0,0,0,0,0,0,0,0,0,0,0,0,0,0,0,0,0,0,0,0,0,0,0,0,0,0,0,0,0,0,0,0,0,0,0,0,0,0,0,0,0,0,0,0,0,0,0,0,0,0,0,0,0,0,0,0,0,0,0,0,0,0,0,0,0,0,0,0,0,0,0,0,0,0,0,0,0,0,0,0,0,0,0,0,0,0,0,0,0,0,0,0,0,0,0,0,0,0,0,0,0,0,0,0,0,0,0,0,0,0,0,0,0,0,0,0,0,0,0,0,0,0,0,0,0,0,0,0,0,0,0,0,0,0,0,0,0,0,0,0,0,0,0,0,0,0,0,0,0,0,0,0,0,0,0,0,0,0,0,0,0,0,0,0,0,0,0],"trees":[{"base_weights":[2.7924962E-4,9.67266E-2,-5.537386E-1,1.2913659E-1,-1.8363251E-1,-4.742025E-1,-1.8197528E0,5.489526E-1,1.05656624E-1,-9.934744E-2,-1.2148117E-1,-8.697533E-1,-4.1764408E-1,-1.0375082E0,-1.0781914E-1,-7.3873915E-2,6.0397357E-1,-7.932276E-1,1.2915702E-1,-3.5654315E-1,1.6643803E-1,5.172813E-1,-1.1041226E0,-4.5192602E-1,1.1499966E0,-8.046463E-2,-5.260905E-1,7.3968315E-1,7.5721634E-3,1.886219E-1,-1.206612E0,4.067479E-1,9.6967846E-2,-1.1814744E-1,-1.223535E0,4.8159164E-1,-2.0301686E-1,1.1709917E-1,4.388793E-2,-1.3834829E0,-4.6056136E-1,-1.6489849E0,-4.09642E-1,1.0799648E-2,6.9254E-2,-8.3624285E-1,1.0799648E-2,4.1912828E-2,4.1342885E-3,-5.6130867E-2,2.179754E-2,4.502028E-2,-3.6801167E-2,-1.7160887E-2,-7.0658244E-2,3.9063424E-2,1.2533619E-2,4.398943E-3,5.8752693E-2,-4.255004E-2,7.1221525E-3,5.158543E-3,-9.637934E-2,-7.453906E-3,3.54839E-2,-4.43598E-2,9.111759E-3,-1.0493799E-2,2.4993917E-2,-1.2646352E-2,-8.0009595E-2,1.4841258E-2,-4.7522407E-2,-4.1812144E-2,-9.7149044E-2,1.7648203E-2,-2.5194436E-2,-7.3873915E-2,1.0799648E-2],"categories":[],"categories_nodes":[],"categories_segments":[],"categories_sizes":[],"default_left":[0,0,0,0,0,0,0,0,0,0,0,0,0,0,0,0,0,0,0,0,0,0,0,0,0,0,0,0,0,0,0,0,0,0,0,0,0,0,0,0,0,0,0,0,0,0,0,0,0,0,0,0,0,0,0,0,0,0,0,0,0,0,0,0,0,0,0,0,0,0,0,0,0,0,0,0,0,0,0],"id":0,"left_children":[1,3,5,7,9,11,13,15,17,-1,19,21,23,25,-1,-1,27,29,31,33,35,37,39,41,43,-1,45,47,49,51,53,55,57,59,61,63,65,67,-1,69,71,73,75,-1,-1,77,-1,-1,-1,-1,-1,-1,-1,-1,-1,-1,-1,-1,-1,-1,-1,-1,-1,-1,-1,-1,-1,-1,-1,-1,-1,-1,-1,-1,-1,-1,-1,-1,-1],"loss_changes":[1.2138735E2,1.7605062E1,3.305494E1,1.7044224E1,2.2276604E1,6.7572937E0,2.913002E0,1.1111923E1,3.4837486E1,0E0,1.3275936E1,1.3214466E1,1.5588375E1,1.4376764E0,0E0,0E0,7.274338E0,1.7288416E1,1.42866745E1,2.214227E1,1.0397049E1,8.0644476E-1,5.4018707E0,1.3249466E1,1.0802956E0,0E0,1.4716341E0,4.6753197E0,9.05075E0,9.428445E0,4.814289E0,9.524101E0,1.3832232E1,1.648403E1,2.1820938E1,7.0150805E0,1.1080013E1,6.231817E-1,0E0,5.211632E0,4.6107845E0,5.3896713E-1,1.9371689E1,0E0,0E0,3.1267748E0,0E0,0E0,0E0,0E0,0E0,0E0,0E0,0E0,0E0,0E0,0E0,0E0,0E0,0E0,0E0,0E0,0E0,0E0,0E0,0E0,0E0,0E0,0E0,0E0,0E0,0E0,0E0,0E0,0E0,0E0,0E0,0E0,0E0],"parents":[2147483647,0,0,1,1,2,2,3,3,4,4,5,5,6,6,7,7,8,8,10,10,11,11,12,12,13,13,16,16,17,17,18,18,19,19,20,20,21,21,22,22,23,23,24,24,26,26,27,27,28,28,29,29,30,30,31,31,32,32,33,33,34,34,35,35,36,36,37,37,39,39,40,40,41,41,42,42,45,45],"right_children":[2,4,6,8,10,12,14,16,18,-1,20,22,24,26,-1,-1,28,30,32,34,36,38,40,42,44,-1,46,48,50,52,54,56,58,60,62,64,66,68,-1,70,72,74,76,-1,-1,78,-1,-1,-1,-1,-1,-1,-1,-1,-1,-1,-1,-1,-1,-1,-1,-1,-1,-1,-1,-1,-1,-1,-1,-1,-1,-1,-1,-1,-1,-1,-1,-1,-1],"split_conditions":[4.56E0,2.25E0,8.79E0,3.6E1,3.66E0,1.3804811E-1,1.25E0,4.1043085E-1,6.5E1,-9.934744E-2,3.821026E-1,3.7E1,6.6493994E-1,1.22E0,-1.0781914E-1,-7.3873915E-2,2.13E0,-9.934819E-2,3.17E0,2.62E0,1.984456E0,3.6E1,7.78E2,1.568115E-1,1.37E0,-8.046463E-2,6.64E2,5.3968E-1,2.985843E-1,4.3567443E-1,3.7E1,9.0847456E-1,6.51E0,4.57E2,1.76E0,4.36E2,4.24E0,1.6E0,4.388793E-2,2.2E0,8.62E2,1.4425912E-1,4.502047E-1,1.0799648E-2,6.9254E-2,5.8676045E-2,1.0799648E-2,4.1912828E-2,4.1342885E-3,-5.6130867E-2,2.179754E-2,4.502028E-2,-3.6801167E-2,-1.7160887E-2,-7.0658244E-2,3.9063424E-2,1.2533619E-2,4.398943E-3,5.8752693E-2,-4.255004E-2,7.1221525E-3,5.158543E-3,-9.637934E-2,-7.453906E-3,3.54839E-2,-4.43598E-2,9.111759E-3,-1.0493799E-2,2.4993917E-2,-1.2646352E-2,-8.0009595E-2,1.4841258E-2,-4.7522407E-2,-4.1812144E-2,-9.7149044E-2,1.7648203E-2,-2.5194436E-2,-7.3873915E-2,1.0799648E-2],"split_indices":[1,11,1,17,1,3,10,13,17,0,5,17,5,10,0,0,10,7,1,11,14,17,17,3,10,0,17,3,5,5,17,13,0,17,0,17,1,10,0,11,17,3,7,0,0,5,0,0,0,0,0,0,0,0,0,0,0,0,0,0,0,0,0,0,0,0,0,0,0,0,0,0,0,0,0,0,0,0,0],"split_type":[0,0,0,0,0,0,0,0,0,0,0,0,0,0,0,0,0,0,0,0,0,0,0,0,0,0,0,0,0,0,0,0,0,0,0,0,0,0,0,0,0,0,0,0,0,0,0,0,0,0,0,0,0,0,0,0,0,0,0,0,0,0,0,0,0,0,0,0,0,0,0,0,0,0,0,0,0,0,0],"sum_hessian":[2.2697415E3,1.9339E3,3.3584155E2,1.7339874E3,1.9991255E2,3.172831E2,1.855844E1,9.065838E1,1.6433291E3,5.6286335E0,1.9428392E2,3.7893154E1,2.7938998E2,6.8117256E0,1.1746714E1,1.7130624E0,8.894531E1,4.103403E1,1.602295E3,1.0682879E2,8.745513E1,5.302863E0,3.259029E1,2.7410736E2,5.282601E0,2.202509E0,4.609217E0,7.226203E1,1.6683283E1,1.2318789E1,2.8715242E1,1.6528502E2,1.43701E3,8.468055E1,2.214824E1,4.703212E1,4.042301E1,3.1408777E0,2.161985E0,2.1923779E1,1.0666512E1,8.055604E0,2.6605176E2,1.4480773E0,3.8345237E0,3.1611397E0,1.4480773E0,6.2594677E1,9.6673565E0,4.140033E0,1.2543249E1,6.9754014E0,5.3433867E0,6.0572944E0,2.2657948E1,4.7440517E1,1.178445E2,1.4262001E3,1.0809925E1,2.1618269E1,6.306228E1,7.974556E0,1.4173684E1,1.2583774E1,3.4448345E1,1.4092636E1,2.6330378E1,1.9375237E0,1.2033541E0,3.8750474E0,1.804873E1,4.344232E0,6.3222795E0,3.1611397E0,4.894464E0,2.8961546E1,2.3709023E2,1.7130624E0,1.4480773E0],"tree_param":{"num_deleted":"0","num_feature":"18","num_nodes":"79","size_leaf_vector":"1"}},{"base_weights":[1.7647676E-2,1.16036996E-1,-5.011778E-1,-1.6539751E-1,1.6015114E-1,-1.7375955E-2,-6.428618E-1,-9.3924634E-2,-1.1249794E0,2.2840321E-1,5.022482E-2,1.721038E-1,-6.305503E-1,-1.2645456E0,-5.675238E-1,-2.1346381E-1,4.4863066E-1,3.2475423E-2,-1.4401983E0,1.9354899E-1,5.9487146E-1,-1.0330133E0,6.860242E-2,-2.3233855E-1,1.0721223E0,-8.8591343E-1,5.807968E-2,2.6068736E-2,-1.3586924E0,-1.494678E0,-5.1731527E-1,-8.592799E-2,-6.9314754E-1,5.8122283E-1,-3.3496803E-1,2.4099244E-2,-1.633196E0,2.4728E-1,-1.4099865E-1,6.359946E-1,-6.452564E-2,-1.6169848E0,4.3756854E-2,4.8672054E-2,9.581801E-1,-9.9635625E-1,1.88532E-1,1.1262833E0,1.0926376E-2,7.927238E-2,-1.2451669E0,-5.5012506E-1,-1.5999005E0,-1.922374E-3,-8.588917E-2,-4.831016E-2,-5.946977E-1,-3.743678E-2,-4.5332444E-4,-4.2211812E-2,3.584219E-2,1.2161817E-2,5.280124E-2,1.5366197E-2,-7.392176E-2,-1.03812136E-1,-3.428188E-2,1.118077E-3,1.56942E-2,-1.4838316E-2,2.3041643E-2,3.3914212E-2,-6.452564E-2,-1.8843334E-2,-9.909782E-2,-1.4859416E-3,1.4510957E-2,-7.771122E-4,5.4818925E-2,-6.34727E-2,5.6909635E-3,-6.971696E-2,1.5902339E-2,3.9088454E-2,7.602244E-2,5.726403E-2,-3.6691107E-2,-9.991956E-2,-1.2460463E-2,4.3566562E-2,-6.0828414E-2,-4.7782358E-2,-9.112201E-2,-1.3049833E-2,4.4526316E-2,-1.796847E-2,-4.153798E-2],"categories":[],"categories_nodes":[],"categories_segments":[],"categories_sizes":[],"default_left":[0,0,0,0,0,0,0,0,0,0,0,0,0,0,0,0,0,0,0,0,0,0,0,0,0,0,0,0,0,0,0,0,0,0,0,0,0,0,0,0,0,0,0,0,0,0,0,0,0,0,0,0,0,0,0,0,0,0,0,0,0,0,0,0,0,0,0,0,0,0,0,0,0,0,0,0,0,0,0,0,0,0,0,0,0,0,0,0,0,0,0,0,0,0,0,0,0],"id":1,"left_children":[1,3,5,7,9,11,13,15,17,19,21,23,25,27,29,31,33,-1,35,37,39,41,43,45,47,49,-1,-1,51,53,55,57,59,61,63,-1,65,67,69,71,-1,73,-1,75,77,79,81,83,-1,85,87,89,91,-1,-1,93,95,-1,-1,-1,-1,-1,-1,-1,-1,-1,-1,-1,-1,-1,-1,-1,-1,-1,-1,-1,-1,-1,-1,-1,-1,-1,-1,-1,-1,-1,-1,-1,-1,-1,-1,-1,-1,-1,-1,-1,-1],"loss_changes":[1.1688418E2,2.3920763E1,2.5009224E1,1.7814514E1,1.24753E1,9.834225E0,1.2504326E1,1.5938052E1,1.1015741E1,1.2996338E1,1.2787689E1,2.3812637E1,1.0170767E1,5.7018547E0,1.1032257E1,1.2227346E1,4.810299E0,0E0,6.5795403E0,1.6910973E1,7.6954384E0,1.335934E1,1.1106746E1,1.4813793E1,6.9000053E-1,6.357971E0,0E0,0E0,4.676075E0,3.9946728E0,8.757904E0,8.134148E0,9.561523E0,5.8990974E0,5.6420584E0,0E0,4.628891E0,1.2116364E1,1.2375775E1,7.999584E0,0E0,3.1266766E0,0E0,1.16792755E1,1.8648815E0,5.091114E0,6.628459E0,1.3642845E0,0E0,5.89938E0,9.415478E0,8.704815E0,1.3292313E0,0E0,0E0,7.2963424E0,1.1241142E1,0E0,0E0,0E0,0E0,0E0,0E0,0E0,0E0,0E0,0E0,0E0,0E0,0E0,0E0,0E0,0E0,0E0,0E0,0E0,0E0,0E0,0E0,0E0,0E0,0E0,0E0,0E0,0E0,0E0,0E0,0E0,0E0,0E0,0E0,0E0,0E0,0E0,0E0,0E0,0E0],"parents":[2147483647,0,0,1,1,2,2,3,3,4,4,5,5,6,6,7,7,8,8,9,9,10,10,11,11,12,12,13,13,14,14,15,15,16,16,18,18,19,19,20,20,21,21,22,22,23,23,24,24,25,25,28,28,29,29,30,30,31,31,32,32,33,33,34,34,36,36,37,37,38,38,39,39,41,41,43,43,44,44,45,45,46,46,47,47,49,49,50,50,51,51,52,52,55,55,56,56],"right_children":[2,4,6,8,10,12,14,16,18,20,22,24,26,28,30,32,34,-1,36,38,40,42,44,46,48,50,-1,-1,52,54,56,58,60,62,64,-1,66,68,70,72,-1,74,-1,76,78,80,82,84,-1,86,88,90,92,-1,-1,94,96,-1,-1,-1,-1,-1,-1,-1,-1,-1,-1,-1,-1,-1,-1,-1,-1,-1,-1,-1,-1,-1,-1,-1,-1,-1,-1,-1,-1,-1,-1,-1,-1,-1,-1,-1,-1,-1,-1,-1,-1],"split_conditions":[4.75E0,1.67E0,2.04E0,9.27E2,1.86E0,6.95E0,8.131147E-2,8.17E2,2.3E0,3.73E0,1.9E0,6.19E0,1.142E1,1.8E1,5.04E0,3.47E0,9.04E2,3.2475423E-2,1.4E0,1.37E0,4.8398092E-1,3.97E0,2.75E0,2.2543353E-1,9.36E2,1.81E0,5.807968E-2,2.6068736E-2,1.25E0,2.09E0,5.48E0,3.5E-1,7.86E2,1E0,2.95E0,2.4099244E-2,3.22E0,2.12E2,3.78E0,9.61E2,-6.452564E-2,2E0,4.3756854E-2,3.0120482E0,2.46E2,2.13E0,1.81E0,5.41E2,1.0926376E-2,1.91E2,7.81E2,1.644E1,2.75E0,-1.922374E-3,-8.588917E-2,5.44E0,1.37E0,-3.743678E-2,-4.5332444E-4,-4.2211812E-2,3.584219E-2,1.2161817E-2,5.280124E-2,1.5366197E-2,-7.392176E-2,-1.03812136E-1,-3.428188E-2,1.118077E-3,1.56942E-2,-1.4838316E-2,2.3041643E-2,3.3914212E-2,-6.452564E-2,-1.8843334E-2,-9.909782E-2,-1.4859416E-3,1.4510957E-2,-7.771122E-4,5.4818925E-2,-6.34727E-2,5.6909635E-3,-6.971696E-2,1.5902339E-2,3.9088454E-2,7.602244E-2,5.726403E-2,-3.6691107E-2,-9.991956E-2,-1.2460463E-2,4.3566562E-2,-6.0828414E-2,-4.7782358E-2,-9.112201E-2,-1.3049833E-2,4.4526316E-2,-1.796847E-2,-4.153798E-2],"split_indices":[6,10,11,17,6,6,14,17,11,2,6,6,2,17,6,6,17,0,10,6,3,2,10,14,17,11,0,0,10,11,6,6,17,9,6,0,0,17,0,17,0,2,0,13,17,10,10,17,0,17,17,2,11,0,0,6,0,0,0,0,0,0,0,0,0,0,0,0,0,0,0,0,0,0,0,0,0,0,0,0,0,0,0,0,0,0,0,0,0,0,0,0,0,0,0,0,0],"split_type":[0,0,0,0,0,0,0,0,0,0,0,0,0,0,0,0,0,0,0,0,0,0,0,0,0,0,0,0,0,0,0,0,0,0,0,0,0,0,0,0,0,0,0,0,0,0,0,0,0,0,0,0,0,0,0,0,0,0,0,0,0,0,0,0,0,0,0,0,0,0,0,0,0,0,0,0,0,0,0,0,0,0,0,0,0,0,0,0,0,0,0,0,0,0,0,0,0],"sum_hessian":[2.2876023E3,1.9235916E3,3.640108E2,2.6028772E2,1.6633038E3,8.270942E1,2.813014E2,2.4326631E2,1.7021414E1,1.0255026E3,6.378013E2,6.373401E1,1.8975409E1,2.8698502E1,2.5260289E2,1.9984236E2,4.342396E1,2.4076023E0,1.4613811E1,9.378348E2,8.7667816E1,9.719016E0,6.280823E2,4.44854E1,1.9248606E1,1.7051416E1,1.9239932E0,1.2098739E0,2.7488628E1,1.1498641E1,2.4110425E2,1.5880045E2,4.10419E1,3.7360485E1,6.0634775E0,1.1967984E0,1.3417012E1,8.0827954E2,1.2955524E2,8.644499E1,1.2228285E0,7.558423E0,2.1605935E0,6.1535046E2,1.2731782E1,1.5315461E1,2.916994E1,1.7799744E1,1.4488618E0,4.8365836E0,1.2214832E1,7.0699043E0,2.0418724E1,1.68338E0,9.815262E0,3.4376575E1,2.0672768E2,1.5593144E1,1.432073E2,3.7432087E1,3.6098146E0,2.2708084E1,1.46524E1,4.3508277E0,1.7126493E0,8.330705E0,5.086308E0,1.8497237E2,6.233072E2,1.0332045E2,2.6234785E1,8.522216E1,1.2228285E0,2.1808424E0,5.37758E0,4.6524E2,1.5011047E2,1.6927171E0,1.1039065E1,1.2176604E1,3.1388564E0,1.4676094E0,2.7702333E1,1.1090029E1,6.7097144E0,1.9160279E0,2.9205556E0,6.381853E0,5.8329787E0,2.158534E0,4.9113708E0,6.6015334E0,1.3817191E1,2.8615864E1,5.7607126E0,1.0478783E2,1.0193984E2],"tree_param":{"num_deleted":"0","num_feature":"18","num_nodes":"97","size_leaf_vector":"1"}},{"base_weights":[1.9110437E-6,1.026194E-1,-4.4977722E-1,6.509626E-2,4.533194E-1,-6.522037E-1,-1.865003E-1,6.1494523E-1,3.6266807E-2,4.7656047E-1,-7.014347E-2,-5.4022807E-1,-1.171376E0,-6.5074915E-1,1.22389704E-1,-5.0920296E-1,6.54988E-1,6.627771E-2,-3.6239198E-1,-6.489106E-2,4.9622628E-1,-5.9931546E-1,3.7320465E-1,-1.7358906E0,-6.7803776E-1,-5.281444E-2,-1.0551865E0,-1.3423393E0,2.0883432E-1,-6.372886E-2,2.4801878E-2,-1.0552533E-1,7.099914E-1,-8.0736004E-2,1.3414441E-1,3.7559348E-1,-6.544453E-1,4.177352E-1,8.320628E-1,-5.592062E-1,-8.831447E-2,6.509733E-2,-3.405812E-2,-7.5805944E-1,-1.04906276E-1,2.7327176E-2,-9.838628E-2,7.130619E-1,-6.356692E-1,-1.5481502E0,-7.990983E-1,-6.676106E-4,-9.102483E-2,3.2349345E-1,-7.426182E-1,5.336817E-2,-7.863485E-2,2.4995463E-2,5.8721717E-2,-7.951349E-4,-2.8415004E-2,-1.8429449E-3,1.1115764E-2,-8.133348E-2,2.8794264E-2,-4.0930152E-2,4.974746E-2,2.7838338E-2,-4.322205E-2,7.3411934E-2,3.2005977E-2,-3.054024E-2,4.0403146E-2,1.7034454E-2,-3.3655625E-2,2.5327588E-2,-5.6663763E-2,-6.42972E-2,3.9757464E-2,-8.029017E-3,4.3512307E-2,-8.462477E-2,-1.586619E-2,-8.938324E-2,2.681591E-2,1.177387E-2,-6.23105E-2,-2.79676E-2,2.2650195E-2,3.7475914E-2,-7.506793E-2],"categories":[],"categories_nodes":[],"categories_segments":[],"categories_sizes":[],"default_left":[0,0,0,0,0,0,0,0,0,0,0,0,0,0,0,0,0,0,0,0,0,0,0,0,0,0,0,0,0,0,0,0,0,0,0,0,0,0,0,0,0,0,0,0,0,0,0,0,0,0,0,0,0,0,0,0,0,0,0,0,0,0,0,0,0,0,0,0,0,0,0,0,0,0,0,0,0,0,0,0,0,0,0,0,0,0,0,0,0,0,0],"id":2,"left_children":[1,3,5,7,9,11,13,15,17,19,-1,21,23,25,27,29,31,33,35,-1,37,39,41,43,45,47,49,51,53,-1,-1,55,57,59,61,63,65,67,69,71,-1,-1,73,75,-1,77,-1,79,81,83,85,-1,-1,87,89,-1,-1,-1,-1,-1,-1,-1,-1,-1,-1,-1,-1,-1,-1,-1,-1,-1,-1,-1,-1,-1,-1,-1,-1,-1,-1,-1,-1,-1,-1,-1,-1,-1,-1,-1,-1],"loss_changes":[1.04949875E2,2.4334251E1,2.2390236E1,2.650828E1,8.381115E0,1.3226471E1,2.6610067E1,4.0840073E0,1.9062996E1,6.831398E0,0E0,1.090802E1,1.0363899E1,1.7857338E1,1.4453142E1,3.2699738E0,3.458603E0,1.4785042E1,2.4291191E1,0E0,4.2943344E0,7.7330856E0,4.8267183E0,5.027771E0,2.1663757E1,1.4264736E1,4.334427E0,4.0252123E0,1.1865282E1,0E0,0E0,1.256512E1,6.7857056E0,1.479427E1,1.5288828E1,1.3877289E1,2.2555428E1,2.6283798E1,3.0106125E0,1.3304497E1,0E0,0E0,2.5676284E0,3.713571E0,0E0,1.7501707E1,0E0,2.0405736E0,5.5517344E0,7.959282E0,1.46849785E1,0E0,0E0,1.1206622E1,1.4443808E1,0E0,0E0,0E0,0E0,0E0,0E0,0E0,0E0,0E0,0E0,0E0,0E0,0E0,0E0,0E0,0E0,0E0,0E0,0E0,0E0,0E0,0E0,0E0,0E0,0E0,0E0,0E0,0E0,0E0,0E0,0E0,0E0,0E0,0E0,0E0,0E0],"parents":[2147483647,0,0,1,1,2,2,3,3,4,4,5,5,6,6,7,7,8,8,9,9,11,11,12,12,13,13,14,14,15,15,16,16,17,17,18,18,20,20,21,21,22,22,23,23,24,24,25,25,26,26,27,27,28,28,31,31,32,32,33,33,34,34,35,35,36,36,37,37,38,38,39,39,42,42,43,43,45,45,47,47,48,48,49,49,50,50,53,53,54,54],"right_children":[2,4,6,8,10,12,14,16,18,20,-1,22,24,26,28,30,32,34,36,-1,38,40,42,44,46,48,50,52,54,-1,-1,56,58,60,62,64,66,68,70,72,-1,-1,74,76,-1,78,-1,80,82,84,86,-1,-1,88,90,-1,-1,-1,-1,-1,-1,-1,-1,-1,-1,-1,-1,-1,-1,-1,-1,-1,-1,-1,-1,-1,-1,-1,-1,-1,-1,-1,-1,-1,-1,-1,-1,-1,-1,-1,-1],"split_conditions":[4.35E0,3.059395E-1,5.97E2,3.6E1,4.7015387E-1,5.12E2,1.7948164E-1,1.62E0,9.27E2,2.13E0,-7.014347E-2,5.02E2,6.88E0,2.7E0,1E0,3.3E0,2.3629855E-1,2.82E2,3.34E0,-6.489106E-2,4.1493982E-1,1.016E1,4.57E0,5.4E2,9.8E0,7.78E2,1.75E0,1.69E0,6.958944E-1,-6.372886E-2,2.4801878E-2,1.93E0,2.6864389E-2,1.0520487E-1,2.5838086E-1,3.19E0,3.1588235E0,3.9782885E-1,1E2,4E0,-8.831447E-2,6.509733E-2,2.75E0,3.05E0,-1.04906276E-1,1.863354E-1,-9.838628E-2,7.1180695E-1,5.6E0,9.74E2,9.26E0,-6.676106E-4,-9.102483E-2,1.568115E-1,1.8283348E-1,5.336817E-2,-7.863485E-2,2.4995463E-2,5.8721717E-2,-7.951349E-4,-2.8415004E-2,-1.8429449E-3,1.1115764E-2,-8.133348E-2,2.8794264E-2,-4.0930152E-2,4.974746E-2,2.7838338E-2,-4.322205E-2,7.3411934E-2,3.2005977E-2,-3.054024E-2,4.0403146E-2,1.7034454E-2,-3.3655625E-2,2.5327588E-2,-5.6663763E-2,-6.42972E-2,3.9757464E-2,-8.029017E-3,4.3512307E-2,-8.462477E-2,-1.586619E-2,-8.938324E-2,2.681591E-2,1.177387E-2,-6.23105E-2,-2.79676E-2,2.2650195E-2,3.7475914E-2,-7.506793E-2],"split_indices":[1,4,17,17,3,17,4,11,17,2,0,17,2,11,9,1,4,17,1,0,3,1,6,17,2,17,9,2,3,0,0,11,12,12,4,1,14,3,17,11,0,0,11,6,0,12,0,3,1,17,6,0,0,3,4,0,0,0,0,0,0,0,0,0,0,0,0,0,0,0,0,0,0,0,0,0,0,0,0,0,0,0,0,0,0,0,0,0,0,0,0],"split_type":[0,0,0,0,0,0,0,0,0,0,0,0,0,0,0,0,0,0,0,0,0,0,0,0,0,0,0,0,0,0,0,0,0,0,0,0,0,0,0,0,0,0,0,0,0,0,0,0,0,0,0,0,0,0,0,0,0,0,0,0,0,0,0,0,0,0,0,0,0,0,0,0,0,0,0,0,0,0,0,0,0,0,0,0,0,0,0,0,0,0,0],"sum_hessian":[2.271847E3,1.8504393E3,4.2140747E2,1.6726589E3,1.7778049E2,2.373999E2,1.8400757E2,8.231813E1,1.5903408E3,1.7631612E2,1.464371E0,1.9695995E2,4.043996E1,7.307386E1,1.1093371E2,2.4283688E0,7.988976E1,1.4797773E3,1.1056342E2,1.220281E0,1.7509583E2,1.8531625E2,1.1643693E1,1.7684902E1,2.2755056E1,2.994003E1,4.3133827E1,5.3725305E0,1.0556118E2,1.226556E0,1.2018127E0,5.326299E0,7.456346E1,4.6730515E2,1.0124722E3,3.1267633E1,7.929579E1,1.4374408E2,3.1351746E1,1.8058856E2,4.7276907E0,2.879749E0,8.763944E0,5.6164255E0,1.2068477E1,1.5342591E1,7.412465E0,1.2842055E1,1.7097973E1,1.3021795E1,3.0112034E1,1.6935139E0,3.6790166E0,9.479721E1,1.076397E1,3.1114454E0,2.214854E0,5.2770203E1,2.1793259E1,4.133703E2,5.3934856E1,3.4464032E2,6.678319E2,2.1957562E0,2.9071877E1,7.2576256E1,6.719535E0,1.3019255E2,1.3551539E1,5.7255783E0,2.5626167E1,1.7455441E2,6.034145E0,5.8186946E0,2.9452493E0,1.2050272E0,4.4113984E0,5.411703E0,9.930888E0,1.9549091E0,1.0887147E1,2.9588387E0,1.4139134E1,1.1807455E1,1.2143401E0,9.229394E0,2.0882639E1,1.1702789E1,8.309442E1,3.6324868E0,7.131483E0],"tree_param":{"num_deleted":"0","num_feature":"18","num_nodes":"91","size_leaf_vector":"1"}},{"base_weights":[-3.3962817E-3,-4.7362524E-1,8.230738E-2,-1.4053445E0,-4.181851E-1,1.20296225E-1,-2.8481603E-1,-6.8667614E-1,-9.303019E-2,-3.5889006E-1,-1.1125997E0,5.7842183E-1,1.03698045E-1,-1.0158067E0,-1.3788556E-1,-7.458285E-2,-1.5491274E-1,-4.390509E-1,2.8819636E-2,-9.07286E-2,-2.4733724E-1,6.3757724E-1,-6.332742E-2,9.682025E-2,1.0607522E0,-1.4162885E0,-3.4197338E-2,-7.5293615E-2,-9.029988E-2,-6.281092E-2,3.3303255E-1,-4.781762E-1,7.5312895E-1,-1.1591486E0,2.8139916E-1,6.474541E-2,-7.040879E-2,-6.1509795E-2,6.9812834E-1,4.992815E-2,2.2652279E-1,1.3374782E0,-1.2741945E-2,-4.622997E-1,-1.8340408E0,9.176527E-1,-1.0549005E0,2.6481622E-1,-2.7673694E-1,4.1587435E-2,-1.2794062E-2,2.3591695E-3,-2.6943553E-2,5.2485716E-2,-7.994863E-3,-7.304555E-2,2.5832593E-2,5.6737233E-2,7.024612E-3,4.590292E-2,-2.1873113E-2,4.0639848E-2,-4.5064618E-4,4.299154E-3,-1.364249E-2,-1.1517176E-2,1.5223424E-2,1.0221833E-2,7.5190775E-2,3.7715305E-2,-8.445683E-2,-1.03322685E-1,-2.9534537E-2,5.521934E-2,1.1422851E-2,-7.919279E-2,7.487271E-4,1.7420465E-2,-7.450039E-2,-6.797451E-3,-6.8602346E-2],"categories":[],"categories_nodes":[],"categories_segments":[],"categories_sizes":[],"default_left":[0,0,0,0,0,0,0,0,0,0,0,0,0,0,0,0,0,0,0,0,0,0,0,0,0,0,0,0,0,0,0,0,0,0,0,0,0,0,0,0,0,0,0,0,0,0,0,0,0,0,0,0,0,0,0,0,0,0,0,0,0,0,0,0,0,0,0,0,0,0,0,0,0,0,0,0,0,0,0,0,0],"id":3,"left_children":[1,3,5,7,9,11,13,15,-1,17,19,21,23,25,27,-1,29,31,33,-1,35,37,-1,39,41,43,45,47,-1,-1,49,51,53,55,57,59,-1,-1,61,63,65,67,-1,69,71,73,75,77,79,-1,-1,-1,-1,-1,-1,-1,-1,-1,-1,-1,-1,-1,-1,-1,-1,-1,-1,-1,-1,-1,-1,-1,-1,-1,-1,-1,-1,-1,-1,-1,-1],"loss_changes":[9.1903206E1,1.7571938E1,2.6936277E1,5.0436134E0,1.3321903E1,1.3237612E1,1.9319515E1,3.6546512E0,0E0,9.60051E0,1.5185423E1,7.4568367E0,1.1013872E1,1.1810135E1,1.5735884E1,0E0,3.9555588E0,1.2287308E1,1.6467363E1,0E0,4.6873517E0,7.610319E0,0E0,1.0193578E1,4.691188E0,7.6806297E0,1.045592E1,1.0183047E1,0E0,0E0,1.7846628E0,7.939396E0,2.4732127E0,5.6232567E0,5.2714987E0,5.0962067E0,0E0,0E0,4.7477093E0,1.43800535E1,1.5925917E1,1.5834408E0,0E0,1.299707E1,2.9826508E0,4.6685743E-1,2.953806E0,8.645735E0,1.4179442E1,0E0,0E0,0E0,0E0,0E0,0E0,0E0,0E0,0E0,0E0,0E0,0E0,0E0,0E0,0E0,0E0,0E0,0E0,0E0,0E0,0E0,0E0,0E0,0E0,0E0,0E0,0E0,0E0,0E0,0E0,0E0,0E0],"parents":[2147483647,0,0,1,1,2,2,3,3,4,4,5,5,6,6,7,7,9,9,10,10,11,11,12,12,13,13,14,14,16,16,17,17,18,18,20,20,21,21,23,23,24,24,25,25,26,26,27,27,30,30,31,31,32,32,33,33,34,34,35,35,38,38,39,39,40,40,41,41,43,43,44,44,45,45,46,46,47,47,48,48],"right_children":[2,4,6,8,10,12,14,16,-1,18,20,22,24,26,28,-1,30,32,34,-1,36,38,-1,40,42,44,46,48,-1,-1,50,52,54,56,58,60,-1,-1,62,64,66,68,-1,70,72,74,76,78,80,-1,-1,-1,-1,-1,-1,-1,-1,-1,-1,-1,-1,-1,-1,-1,-1,-1,-1,-1,-1,-1,-1,-1,-1,-1,-1,-1,-1,-1,-1,-1,-1],"split_conditions":[2.1210597E-1,1.1000242E-1,2.3E0,1.25E0,2.0692605E-1,2.8E1,3.1E2,1.22E0,-9.303019E-2,1.9819528E-1,1.73E0,2.25E0,6.51E0,2.551261E-1,2.636467E-1,-7.458285E-2,8.31376E-1,9.81E2,1.52E0,-9.07286E-2,1.5E0,2.2817278E-1,-6.332742E-2,2.2E0,7.02E0,1.78E0,2.5906187E-1,5E-1,-9.029988E-2,-6.281092E-2,1.644E1,7.3E1,1.65E0,1.87E0,1.37E0,5.065022E-1,-7.040879E-2,-6.1509795E-2,3.13E0,8.97E2,1.87E2,1.99E2,-1.2741945E-2,4.85E0,2.99E2,2.84E0,2.89E0,3.37E0,2.4456389E-1,4.1587435E-2,-1.2794062E-2,2.3591695E-3,-2.6943553E-2,5.2485716E-2,-7.994863E-3,-7.304555E-2,2.5832593E-2,5.6737233E-2,7.024612E-3,4.590292E-2,-2.1873113E-2,4.0639848E-2,-4.5064618E-4,4.299154E-3,-1.364249E-2,-1.1517176E-2,1.5223424E-2,1.0221833E-2,7.5190775E-2,3.7715305E-2,-8.445683E-2,-1.03322685E-1,-2.9534537E-2,5.521934E-2,1.1422851E-2,-7.919279E-2,7.487271E-4,1.7420465E-2,-7.450039E-2,-6.797451E-3,-6.8602346E-2],"split_indices":[4,4,11,10,4,17,17,10,0,4,10,10,0,4,4,0,3,17,2,0,0,4,0,10,0,0,4,9,0,0,2,17,10,10,10,7,0,0,0,17,17,17,0,2,17,0,0,0,4,0,0,0,0,0,0,0,0,0,0,0,0,0,0,0,0,0,0,0,0,0,0,0,0,0,0,0,0,0,0,0,0],"split_type":[0,0,0,0,0,0,0,0,0,0,0,0,0,0,0,0,0,0,0,0,0,0,0,0,0,0,0,0,0,0,0,0,0,0,0,0,0,0,0,0,0,0,0,0,0,0,0,0,0,0,0,0,0,0,0,0,0,0,0,0,0,0,0,0,0,0,0,0,0,0,0,0,0,0,0,0,0,0,0,0,0],"sum_hessian":[2.2784895E3,3.5055862E2,1.9279309E3,1.8320362E1,3.3223828E2,1.7477511E3,1.8017978E2,8.077543E0,1.0242819E1,3.0749826E2,2.474001E1,5.9924664E1,1.6878264E3,2.9165518E1,1.5101427E2,2.4952028E0,5.5823402E0,2.5470445E2,5.2793808E1,1.3053111E1,1.1686898E1,5.869708E1,1.2275846E0,1.6768768E3,1.0949589E1,2.0399858E1,8.765658E0,1.4656009E2,4.4541817E0,1.2305192E0,4.351821E0,2.4719098E2,7.513475E0,8.627319E0,4.416649E1,9.954841E0,1.732058E0,1.2365804E0,5.74605E1,1.2326241E3,4.442527E2,9.032933E0,1.9166551E0,6.854164E0,1.3545695E1,4.588056E0,4.177602E0,5.439942E1,9.216066E1,2.13309E0,2.2187312E0,2.5623434E1,2.2156755E2,5.55824E0,1.9552352E0,7.419514E0,1.2078056E0,5.259758E0,3.890673E1,3.3813918E0,6.5734487E0,4.9314365E1,8.146133E0,1.1094321E3,1.23192116E2,6.446226E1,3.7979044E2,1.4416792E0,7.591254E0,3.6348193E0,3.2193446E0,1.085468E1,2.691015E0,3.1359563E0,1.4520999E0,2.4740157E0,1.7035862E0,5.2690884E1,1.7085347E0,8.265992E1,9.500745E0],"tree_param":{"num_deleted":"0","num_feature":"18","num_nodes":"81","size_leaf_vector":"1"}},{"base_weights":[1.2795303E-2,1.0445263E-1,-3.8818493E-1,9.442477E-2,9.464509E-1,-1.2869121E0,-3.1556925E-1,1.2121293E-1,-1.7645043E-1,-1.5416399E-2,1.0811206E0,-6.662289E-1,-1.4729551E0,-4.720315E-1,-2.432415E-3,5.609063E-1,1.0470415E-1,-1.1450555E-1,-9.086489E-2,-1.0932665E-3,1.1849039E0,-7.173242E-2,-1.5575342E-1,-9.2789635E-2,-9.8385876E-1,9.356552E-2,-5.5565757E-1,3.275819E-1,-4.6955174E-1,7.740919E-1,-7.9437554E-1,7.7015676E-2,3.4130722E-1,-8.555942E-2,-6.0360454E-2,8.0142635E-1,7.5878546E-2,-4.257473E-1,2.8253585E-2,9.645708E-1,-9.1576986E-2,3.023149E-1,-1.0871494E0,-5.185722E-1,-9.313708E-2,4.6165857E-1,-7.0856833E-1,-8.861341E-2,-3.2714063E-1,4.6519477E-2,3.4509597E-3,5.4749858E-2,-7.394858E-2,5.52348E-3,-1.0745693E-2,1.0209548E-2,3.6228683E-2,1.7225297E-2,-1.4318528E-2,6.4889684E-2,2.2353599E-2,-6.7064114E-2,1.941765E-2,1.46182E-2,6.0064595E-2,3.0878214E-2,-1.4103933E-2,-8.026277E-2,1.3808287E-3,-5.039206E-2,-2.2274304E-2,-1.9909622E-2,2.9628307E-2,3.3634644E-2,-6.4275116E-2,-4.3201447E-2,9.327139E-3],"categories":[],"categories_nodes":[],"categories_segments":[],"categories_sizes":[],"default_left":[0,0,0,0,0,0,0,0,0,0,0,0,0,0,0,0,0,0,0,0,0,0,0,0,0,0,0,0,0,0,0,0,0,0,0,0,0,0,0,0,0,0,0,0,0,0,0,0,0,0,0,0,0,0,0,0,0,0,0,0,0,0,0,0,0,0,0,0,0,0,0,0,0,0,0,0,0],"id":4,"left_children":[1,3,5,7,9,11,13,15,17,-1,19,21,23,25,27,29,31,33,-1,-1,35,-1,37,-1,39,41,43,45,47,49,51,53,55,-1,57,59,-1,61,-1,63,-1,65,67,69,-1,71,73,-1,75,-1,-1,-1,-1,-1,-1,-1,-1,-1,-1,-1,-1,-1,-1,-1,-1,-1,-1,-1,-1,-1,-1,-1,-1,-1,-1,-1,-1],"loss_changes":[8.389332E1,1.5597151E1,2.731063E1,1.3351692E1,4.009489E0,2.6474342E0,1.9316078E1,1.20804825E1,1.6637543E1,0E0,2.300251E0,3.3354807E0,2.5467033E0,1.2487053E1,2.0559649E1,1.803382E1,1.0541134E1,1.379594E1,0E0,0E0,1.1027031E0,0E0,1.5198455E0,0E0,2.2216492E1,8.886359E0,1.0143448E1,1.1185166E1,9.663374E0,5.7324123E0,1.2856895E1,1.4139363E1,8.717594E0,0E0,1.44223385E1,1.2777262E0,0E0,4.510195E0,0E0,3.503151E-1,0E0,5.7539024E0,3.1827736E0,7.5698357E0,0E0,8.093733E0,8.3152275E0,0E0,1.4226003E1,0E0,0E0,0E0,0E0,0E0,0E0,0E0,0E0,0E0,0E0,0E0,0E0,0E0,0E0,0E0,0E0,0E0,0E0,0E0,0E0,0E0,0E0,0E0,0E0,0E0,0E0,0E0,0E0],"parents":[2147483647,0,0,1,1,2,2,3,3,4,4,5,5,6,6,7,7,8,8,10,10,11,11,12,12,13,13,14,14,15,15,16,16,17,17,20,20,22,22,24,24,25,25,26,26,27,27,28,28,29,29,30,30,31,31,32,32,34,34,35,35,37,37,39,39,41,41,42,42,43,43,45,45,46,46,48,48],"right_children":[2,4,6,8,10,12,14,16,18,-1,20,22,24,26,28,30,32,34,-1,-1,36,-1,38,-1,40,42,44,46,48,50,52,54,56,-1,58,60,-1,62,-1,64,-1,66,68,70,-1,72,74,-1,76,-1,-1,-1,-1,-1,-1,-1,-1,-1,-1,-1,-1,-1,-1,-1,-1,-1,-1,-1,-1,-1,-1,-1,-1,-1,-1,-1,-1],"split_conditions":[4.35E0,3.7070065E0,1.2E0,2.25E0,1.4425912E-1,1.25E0,6.64E2,2.8E1,9.41E2,-1.5416399E-2,5.9569395E-1,1.22E0,6.17E2,1.28E0,5.15E0,3.13E0,3.059395E-1,3.66E0,-9.086489E-2,-1.0932665E-3,2.370936E-1,-7.173242E-2,6.64E2,-9.2789635E-2,6.56E2,5.48E2,2.2158167E-1,6.04E0,5.27E0,2.13E0,1.73E0,8.99E2,8.69E2,-8.555942E-2,3.87E0,1.73E0,7.5878546E-2,5.8676045E-2,2.8253585E-2,7.451088E-1,-9.1576986E-2,1.48E0,8.807388E-2,1.6588357E-1,-9.313708E-2,1.172767E-1,7.81E2,-8.861341E-2,1.48E0,4.6519477E-2,3.4509597E-3,5.4749858E-2,-7.394858E-2,5.52348E-3,-1.0745693E-2,1.0209548E-2,3.6228683E-2,1.7225297E-2,-1.4318528E-2,6.4889684E-2,2.2353599E-2,-6.7064114E-2,1.941765E-2,1.46182E-2,6.0064595E-2,3.0878214E-2,-1.4103933E-2,-8.026277E-2,1.3808287E-3,-5.039206E-2,-2.2274304E-2,-1.9909622E-2,2.9628307E-2,3.3634644E-2,-6.4275116E-2,-4.3201447E-2,9.327139E-3],"split_indices":[1,14,0,11,3,10,17,17,17,0,5,10,17,0,1,0,4,1,0,0,4,0,17,0,17,17,4,0,1,10,10,17,17,0,1,10,0,5,0,7,0,10,5,4,0,5,17,0,10,0,0,0,0,0,0,0,0,0,0,0,0,0,0,0,0,0,0,0,0,0,0,0,0,0,0,0,0],"split_type":[0,0,0,0,0,0,0,0,0,0,0,0,0,0,0,0,0,0,0,0,0,0,0,0,0,0,0,0,0,0,0,0,0,0,0,0,0,0,0,0,0,0,0,0,0,0,0,0,0,0,0,0,0,0,0,0,0,0,0,0,0,0,0,0,0,0,0,0,0,0,0,0,0,0,0,0,0],"sum_hessian":[2.2805356E3,1.8568342E3,4.237015E2,1.8360793E3,2.0754835E1,3.042497E1,3.9327655E2,1.6713445E3,1.6473483E2,1.8866401E0,1.8868195E1,8.072907E0,2.2352064E1,2.6190527E2,1.3137126E2,5.9288315E1,1.6120562E3,1.5977292E2,4.961925E0,1.6905645E0,1.717763E1,2.499696E0,5.5732117E0,1.0970575E1,1.1381489E1,3.372056E1,2.2818472E2,7.715845E1,5.421282E1,5.160041E1,7.6879025E0,1.444356E3,1.6770024E2,4.236587E0,1.5553633E2,9.5630455E0,7.614584E0,4.3523474E0,1.220864E0,3.4086564E0,7.972832E0,2.928666E1,4.433901E0,2.2324736E2,4.937358E0,6.880908E1,8.349368E0,4.2146106E0,4.9998207E1,4.197582E1,9.624595E0,1.8853009E0,5.802602E0,1.2964138E3,1.4794212E2,1.24641594E2,4.3058647E1,5.5532715E1,1.0000361E2,2.874345E0,6.6887007E0,1.7437581E0,2.6085894E0,1.469848E0,1.9388082E0,1.8987272E1,1.0299386E1,2.7266507E0,1.70725E0,2.7351997E1,1.9589537E2,8.821869E0,5.998721E1,2.411034E0,5.938334E0,2.4113447E1,2.588476E1],"tree_param":{"num_deleted":"0","num_feature":"18","num_nodes":"77","size_leaf_vector":"1"}},{"base_weights":[2.9370075E-3,8.267146E-2,-4.435021E-1,8.94698E-2,-9.121578E-1,-3.834253E-1,-1.6102965E0,8.3228886E-2,1.0003908E0,-1.5892602E0,5.784992E-1,5.294411E-1,-4.4569016E-1,-6.1781484E-1,-8.885431E-2,-1.2097292E0,8.700602E-2,7.0328966E-2,-5.584407E-1,2.680318E-2,-9.858844E-2,-1.0294679E-2,5.8401346E-2,-7.905333E-2,8.862103E-1,5.3653564E-2,-4.9811682E-1,2.3612505E-2,-6.2996805E-2,2.3189496E-2,-8.809613E-2,6.254693E-1,7.848408E-2,-6.441873E-2,2.211142E-2,-6.2560276E-3,1.21115E0,-4.3039694E-1,6.2350863E-1,-1.2423955E0,-4.5327178E-1,-2.0150791E-3,4.121418E-2,5.09523E-3,-9.753157E-3,-6.508381E-2,3.4866475E-2,1.3156041E-2,6.504454E-2,-3.556325E-2,5.8241483E-2,-5.9976775E-2,4.440232E-2,3.4399503E-3,-7.062768E-2,-8.518053E-2,-2.1575259E-2],"categories":[],"categories_nodes":[],"categories_segments":[],"categories_sizes":[],"default_left":[0,0,0,0,0,0,0,0,0,0,0,0,0,0,0,0,0,0,0,0,0,0,0,0,0,0,0,0,0,0,0,0,0,0,0,0,0,0,0,0,0,0,0,0,0,0,0,0,0,0,0,0,0,0,0,0,0],"id":5,"left_children":[1,3,5,7,9,11,13,15,17,19,21,23,25,27,-1,29,31,-1,33,-1,-1,-1,-1,-1,35,37,39,-1,-1,-1,-1,41,43,-1,-1,45,47,49,51,53,55,-1,-1,-1,-1,-1,-1,-1,-1,-1,-1,-1,-1,-1,-1,-1,-1],"loss_changes":[8.1193596E1,1.31701355E1,2.3611427E1,1.0849158E1,1.4267235E1,1.89949E1,1.6521187E0,9.438144E0,9.013486E0,8.666796E0,2.4896245E0,1.7612932E1,8.129173E0,3.3410017E0,0E0,6.02318E0,8.698942E0,0E0,3.0546122E0,0E0,0E0,0E0,0E0,0E0,5.534383E0,8.629102E0,8.788902E0,0E0,0E0,0E0,0E0,3.9456615E0,1.2050552E1,0E0,0E0,6.4507813E0,8.4677124E-1,8.43664E0,7.9759192E0,3.5216217E0,6.4999847E0,0E0,0E0,0E0,0E0,0E0,0E0,0E0,0E0,0E0,0E0,0E0,0E0,0E0,0E0,0E0,0E0],"parents":[2147483647,0,0,1,1,2,2,3,3,4,4,5,5,6,6,7,7,8,8,9,9,10,10,11,11,12,12,13,13,15,15,16,16,18,18,24,24,25,25,26,26,31,31,32,32,35,35,36,36,37,37,38,38,39,39,40,40],"right_children":[2,4,6,8,10,12,14,16,18,20,22,24,26,28,-1,30,32,-1,34,-1,-1,-1,-1,-1,36,38,40,-1,-1,-1,-1,42,44,-1,-1,46,48,50,52,54,56,-1,-1,-1,-1,-1,-1,-1,-1,-1,-1,-1,-1,-1,-1,-1,-1],"split_conditions":[4.56E0,2.88E0,8.79E0,6.51E0,2.32E0,3.9E0,1.378E1,-4.5658958E-1,7.02E0,3.3E-1,3.1E0,1.9745035E-1,2.04E0,1.16E0,-8.885431E-2,1.4923081E-1,1.72419E-1,7.0328966E-2,7.43E0,2.680318E-2,-9.858844E-2,-1.0294679E-2,5.8401346E-2,-7.905333E-2,3.08E0,1.42E0,4.67E0,2.3612505E-2,-6.2996805E-2,2.3189496E-2,-8.809613E-2,5.910059E-1,4.12E0,-6.441873E-2,2.211142E-2,4.64E0,1.56E0,1.142E1,5.8E0,4.11E0,4.19E0,-2.0150791E-3,4.121418E-2,5.09523E-3,-9.753157E-3,-6.508381E-2,3.4866475E-2,1.3156041E-2,6.504454E-2,-3.556325E-2,5.8241483E-2,-5.9976775E-2,4.440232E-2,3.4399503E-3,-7.062768E-2,-8.518053E-2,-2.1575259E-2],"split_indices":[1,11,1,0,6,6,6,7,0,6,11,3,11,0,0,3,3,0,0,0,0,0,0,0,6,0,1,0,0,0,0,5,0,0,0,1,0,2,6,6,6,0,0,0,0,0,0,0,0,0,0,0,0,0,0,0,0],"split_type":[0,0,0,0,0,0,0,0,0,0,0,0,0,0,0,0,0,0,0,0,0,0,0,0,0,0,0,0,0,0,0,0,0,0,0,0,0,0,0,0,0,0,0,0,0,0,0,0,0,0,0,0,0,0,0,0,0],"sum_hessian":[2.278908E3,1.9342618E3,3.446462E2,1.9220374E3,1.2224499E1,3.2903333E2,1.5612906E1,1.9100426E3,1.1994731E1,8.360675E0,3.8638244E0,2.0530611E1,3.0850272E2,2.923111E0,1.26897955E1,4.6335735E0,1.905409E3,9.592787E0,2.4019449E0,1.2139862E0,7.1466885E0,1.9371321E0,1.9266922E0,2.4725204E0,1.805809E1,2.9310276E1,2.7919244E2,1.1816645E0,1.7414465E0,1.1892962E0,3.444277E0,2.855803E1,1.876851E3,1.2226064E0,1.1793385E0,5.0816855E0,1.2976404E1,1.5980623E1,1.3329654E1,1.4348634E1,2.648438E2,6.7503557E0,2.1807674E1,1.7294102E3,1.4744089E2,1.4893954E0,3.5922904E0,1.4621463E0,1.1514258E1,1.4059353E1,1.9212703E0,1.2412441E0,1.2088409E1,1.7166032E0,1.26320305E1,3.2095656E0,2.6163425E2],"tree_param":{"num_deleted":"0","num_feature":"18","num_nodes":"57","size_leaf_vector":"1"}},{"base_weights":[-3.1468265E-3,7.7651165E-2,-3.5365164E-1,9.015418E-2,-5.511459E-1,-5.3309196E-1,-1.2317303E-1,8.079368E-2,9.074315E-1,3.031818E-1,-1.1804701E0,-4.8804E-1,-1.3871703E0,9.526429E-2,-4.7358117E-1,5.4814994E-1,6.8830326E-2,1.0469778E0,-1.4957069E-2,8.5141486E-1,-2.4778794E-1,-8.825858E-2,-1.7617987E0,-4.5552987E-1,-8.6098954E-2,2.7151966E-2,-8.357548E-2,-4.984497E-2,8.276735E-1,-1.6306852E0,-2.0364834E-1,-5.9442174E-2,6.2576735E-1,-8.718056E-2,1.11826785E-1,1.2978561E0,4.9466577E-1,3.2390237E-2,7.101452E-2,-7.849216E-1,5.5681556E-2,-5.908366E-2,2.711963E-1,-1.011674E-1,2.5327696E-2,-4.775039E-1,6.9804484E-1,-3.237689E-1,3.635475E-1,-7.287779E-2,1.1742315E0,-9.322083E-2,-6.7693186E-1,2.1834646E-1,-6.082764E-1,5.6752544E-3,4.2785425E-2,-2.7841238E-2,6.249244E-4,1.4543637E-2,2.5368363E-3,1.3134785E-2,7.079682E-2,-6.496904E-2,5.3064473E-2,-1.6646348E-2,2.725254E-2,-5.8233E-2,2.7066404E-2,-9.232524E-3,4.4570815E-2,9.436961E-3,-2.5424128E-2,5.4961313E-2,4.3460127E-4,-2.6988003E-2,4.1252654E-2,-1.7426139E-2,3.7951894E-2,1.5493643E-3,6.4895086E-2,2.8130129E-2,-6.8453304E-2,3.482582E-2,-1.00219995E-2,-3.8460553E-2,5.8717348E-2],"categories":[],"categories_nodes":[],"categories_segments":[],"categories_sizes":[],"default_left":[0,0,0,0,0,0,0,0,0,0,0,0,0,0,0,0,0,0,0,0,0,0,0,0,0,0,0,0,0,0,0,0,0,0,0,0,0,0,0,0,0,0,0,0,0,0,0,0,0,0,0,0,0,0,0,0,0,0,0,0,0,0,0,0,0,0,0,0,0,0,0,0,0,0,0,0,0,0,0,0,0,0,0,0,0,0,0],"id":6,"left_children":[1,3,5,7,9,11,13,15,17,19,21,23,25,27,29,31,33,35,-1,37,39,41,43,45,-1,-1,-1,47,49,51,53,-1,55,57,59,61,63,65,-1,67,-1,-1,69,-1,-1,71,73,75,77,-1,79,-1,81,83,85,-1,-1,-1,-1,-1,-1,-1,-1,-1,-1,-1,-1,-1,-1,-1,-1,-1,-1,-1,-1,-1,-1,-1,-1,-1,-1,-1,-1,-1,-1,-1,-1],"loss_changes":[6.404116E1,1.4497726E1,1.7454247E1,1.3718097E1,1.9697018E1,8.476295E0,1.4338641E1,9.933825E0,3.7338638E0,5.05995E0,1.3125252E1,8.342171E0,7.151602E0,1.2355251E1,2.2117699E1,6.725898E0,1.1682086E1,1.9120216E0,0E0,3.8080802E0,7.295424E0,3.589902E0,9.092598E0,5.986763E0,0E0,0E0,0E0,1.1175169E1,1.6930304E1,1.7369041E0,1.0279336E1,0E0,4.982807E0,1.7633017E1,1.4910791E1,1.1020336E0,8.874263E0,1.0081052E0,0E0,4.0971107E0,0E0,0E0,2.1645243E0,0E0,0E0,4.6253204E0,1.2557275E0,1.5149864E1,1.1356808E1,0E0,2.3972454E0,0E0,4.388974E0,6.111719E0,9.681977E0,0E0,0E0,0E0,0E0,0E0,0E0,0E0,0E0,0E0,0E0,0E0,0E0,0E0,0E0,0E0,0E0,0E0,0E0,0E0,0E0,0E0,0E0,0E0,0E0,0E0,0E0,0E0,0E0,0E0,0E0,0E0,0E0],"parents":[2147483647,0,0,1,1,2,2,3,3,4,4,5,5,6,6,7,7,8,8,9,9,10,10,11,11,12,12,13,13,14,14,15,15,16,16,17,17,19,19,20,20,21,21,22,22,23,23,27,27,28,28,29,29,30,30,32,32,33,33,34,34,35,35,36,36,37,37,39,39,42,42,45,45,46,46,47,47,48,48,50,50,52,52,53,53,54,54],"right_children":[2,4,6,8,10,12,14,16,18,20,22,24,26,28,30,32,34,36,-1,38,40,42,44,46,-1,-1,-1,48,50,52,54,-1,56,58,60,62,64,66,-1,68,-1,-1,70,-1,-1,72,74,76,78,-1,80,-1,82,84,86,-1,-1,-1,-1,-1,-1,-1,-1,-1,-1,-1,-1,-1,-1,-1,-1,-1,-1,-1,-1,-1,-1,-1,-1,-1,-1,-1,-1,-1,-1,-1,-1],"split_conditions":[4.35E0,2.62E0,6.09E2,3.7070065E0,2.18E0,1.558E1,5.38E0,2.2E1,6.239118E-1,6.18E2,3.9E-1,2.2158167E-1,7.21E0,2.88E0,7.51E0,1.6E0,2.12E2,3.86E2,-1.4957069E-2,4.24E0,2.08E0,4.29E2,4.28E0,4.33E0,-8.6098954E-2,2.7151966E-2,-8.357548E-2,2.1210597E-1,4.53E0,1.75E0,2.7E0,-5.9442174E-2,3.06E0,3.33E0,-1.3368611E-1,9.5E1,6.18E2,2.02E0,7.101452E-2,8.66E2,5.5681556E-2,-5.908366E-2,3.91E0,-1.011674E-1,2.5327696E-2,3.21E0,1.378E1,5.27E0,8.48E2,-7.287779E-2,-4.832758E-1,-9.322083E-2,6.04E0,7.427536E0,9.81E2,5.6752544E-3,4.2785425E-2,-2.7841238E-2,6.249244E-4,1.4543637E-2,2.5368363E-3,1.3134785E-2,7.079682E-2,-6.496904E-2,5.3064473E-2,-1.6646348E-2,2.725254E-2,-5.8233E-2,2.7066404E-2,-9.232524E-3,4.4570815E-2,9.436961E-3,-2.5424128E-2,5.4961313E-2,4.3460127E-4,-2.6988003E-2,4.1252654E-2,-1.7426139E-2,3.7951894E-2,1.5493643E-3,6.4895086E-2,2.8130129E-2,-6.8453304E-2,3.482582E-2,-1.00219995E-2,-3.8460553E-2,5.8717348E-2],"split_indices":[1,11,17,14,2,6,1,17,5,17,6,4,1,11,2,11,17,17,0,1,2,17,1,11,0,0,0,4,1,8,11,0,2,1,12,17,17,6,0,17,0,0,1,0,0,6,6,1,17,0,7,0,1,13,17,0,0,0,0,0,0,0,0,0,0,0,0,0,0,0,0,0,0,0,0,0,0,0,0,0,0,0,0,0,0,0,0],"split_type":[0,0,0,0,0,0,0,0,0,0,0,0,0,0,0,0,0,0,0,0,0,0,0,0,0,0,0,0,0,0,0,0,0,0,0,0,0,0,0,0,0,0,0,0,0,0,0,0,0,0,0,0,0,0,0,0,0,0,0,0,0,0,0,0,0,0,0,0,0,0,0,0,0,0,0,0,0,0,0,0,0,0,0,0,0,0,0],"sum_hessian":[2.2593638E3,1.8367391E3,4.226247E2,1.8017694E3,3.4969788E1,2.3688426E2,1.8574043E2,1.7824534E3,1.9316067E1,1.5053042E1,1.9916744E1,2.265076E2,1.0376672E1,1.1486442E2,7.0876015E1,4.3369667E1,1.7390836E3,1.7432215E1,1.8838519E0,7.2719297E0,7.7811127E0,7.3184743E0,1.2598269E1,2.220271E2,4.480497E0,1.2155044E0,9.161167E0,9.66479E1,1.8216513E1,1.2453083E1,5.8422928E1,1.2426993E0,4.212697E1,3.7551508E2,1.3635686E3,1.1058993E1,6.3732224E0,3.4138546E0,3.8580751E0,5.8833513E0,1.8977613E0,1.2447388E0,6.073735E0,1.1392664E1,1.2056056E0,2.1845195E2,3.575147E0,5.8260124E1,3.838778E1,1.9766341E0,1.623988E1,9.235072E0,3.2180111E0,2.8823107E1,2.9599823E1,1.3514044E1,2.8612926E1,6.49435E1,3.1057156E2,3.4593192E2,1.01763666E3,1.462508E0,9.596485E0,1.2193408E0,5.1538815E0,2.1980991E0,1.2157553E0,4.6684866E0,1.2148649E0,3.9055398E0,2.1681955E0,9.4799E0,2.0897205E2,1.8840894E0,1.6910574E0,4.9486317E1,8.7738085E0,1.3750005E1,2.4637775E1,1.7073343E0,1.4532545E1,1.2200993E0,1.9979118E0,1.3147793E1,1.5675314E1,2.7670256E1,1.9295665E0],"tree_param":{"num_deleted":"0","num_feature":"18","num_nodes":"87","size_leaf_vector":"1"}},{"base_weights":[1.6168463E-3,4.79103E-2,-5.617972E-1,1.16111286E-1,-8.3973646E-2,-4.545298E-1,-1.3687702E0,1.0279641E-1,8.3589983E-1,1.5149306E-1,-1.8222773E-1,-6.980508E-1,-1.5396415E-1,-4.2819E-1,-1.4896352E0,1.11519516E-1,-8.838817E-1,4.2351592E-1,9.7155035E-1,2.5347817E-1,-8.0155593E-1,-1.2076164E0,-1.5628305E-1,-9.6166867E-1,1.5183339E-1,1.0996695E0,-2.7858648E-1,-5.54378E-2,2.6738713E-2,-7.787192E-1,-8.369567E-2,1.00412205E-1,8.244486E-1,-9.919584E-2,5.7463545E-1,-6.1654236E-2,9.0780795E-1,3.3757712E-3,1.0615342E0,-6.5661544E-1,3.4505582E-1,-1.2689142E0,-2.428094E-1,-2.69738E-1,-9.947037E-2,-1.7233524E-1,7.530624E-1,-9.644291E-2,-7.5789136E-1,-6.9642997E-1,5.295857E-1,6.442782E-2,1.2955057E-2,-1.5888286E-1,-1.0148636E0,-6.596049E-2,1.98802E-2,7.255049E-3,-4.0281015E-3,-2.3208171E-2,5.9579898E-2,5.1852733E-2,-1.36491405E-2,5.017071E-4,6.0358535E-2,8.431803E-3,5.67544E-2,3.055174E-2,-5.2353095E-2,2.0889971E-2,-3.85728E-2,-2.8404385E-2,-9.181508E-2,2.8464336E-2,-3.9009947E-2,4.3577768E-2,-4.9349986E-2,-4.122933E-3,-2.0333156E-2,6.265749E-2,-1.9027382E-2,-4.6292447E-2,1.0266497E-2,-7.501373E-2,4.598061E-3,4.4465862E-2,-3.2227915E-3,-5.611021E-2,-2.2957108E-3,-8.489714E-2,-1.6803306E-3],"categories":[],"categories_nodes":[],"categories_segments":[],"categories_sizes":[],"default_left":[0,0,0,0,0,0,0,0,0,0,0,0,0,0,0,0,0,0,0,0,0,0,0,0,0,0,0,0,0,0,0,0,0,0,0,0,0,0,0,0,0,0,0,0,0,0,0,0,0,0,0,0,0,0,0,0,0,0,0,0,0,0,0,0,0,0,0,0,0,0,0,0,0,0,0,0,0,0,0,0,0,0,0,0,0,0,0,0,0,0,0],"id":7,"left_children":[1,3,5,7,9,11,13,15,17,19,21,23,25,27,29,31,33,35,37,39,41,43,45,47,49,51,53,-1,-1,55,-1,57,59,-1,61,-1,63,-1,65,67,69,71,73,75,-1,77,79,-1,81,83,85,-1,-1,87,89,-1,-1,-1,-1,-1,-1,-1,-1,-1,-1,-1,-1,-1,-1,-1,-1,-1,-1,-1,-1,-1,-1,-1,-1,-1,-1,-1,-1,-1,-1,-1,-1,-1,-1,-1,-1],"loss_changes":[5.9727386E1,1.9042799E1,1.4428383E1,1.3285446E1,1.6728184E1,1.1235199E1,1.6247826E0,1.1898559E1,9.982071E-1,2.0913414E1,1.3373194E1,1.9262482E1,1.134293E1,2.9979215E0,9.5414734E-1,1.0685621E1,2.059618E1,7.545876E0,1.4080162E0,1.6331848E1,5.1332226E0,8.578606E0,7.404192E0,1.140041E1,7.118396E0,7.1239185E-1,5.5722165E0,0E0,0E0,3.9688556E0,0E0,1.0850119E1,1.0357307E1,0E0,2.6305819E0,0E0,1.8085318E0,0E0,8.9058876E-1,9.554447E0,1.46353E1,3.3745613E0,5.1256933E0,6.433713E0,0E0,1.0297099E1,5.483066E0,0E0,9.177124E0,4.524764E0,3.2930694E0,0E0,0E0,6.1668997E0,5.916213E0,0E0,0E0,0E0,0E0,0E0,0E0,0E0,0E0,0E0,0E0,0E0,0E0,0E0,0E0,0E0,0E0,0E0,0E0,0E0,0E0,0E0,0E0,0E0,0E0,0E0,0E0,0E0,0E0,0E0,0E0,0E0,0E0,0E0,0E0,0E0,0E0],"parents":[2147483647,0,0,1,1,2,2,3,3,4,4,5,5,6,6,7,7,8,8,9,9,10,10,11,11,12,12,13,13,14,14,15,15,16,16,17,17,18,18,19,19,20,20,21,21,22,22,23,23,24,24,25,25,26,26,29,29,31,31,32,32,34,34,36,36,38,38,39,39,40,40,41,41,42,42,43,43,45,45,46,46,48,48,49,49,50,50,53,53,54,54],"right_children":[2,4,6,8,10,12,14,16,18,20,22,24,26,28,30,32,34,36,38,40,42,44,46,48,50,52,54,-1,-1,56,-1,58,60,-1,62,-1,64,-1,66,68,70,72,74,76,-1,78,80,-1,82,84,86,-1,-1,88,90,-1,-1,-1,-1,-1,-1,-1,-1,-1,-1,-1,-1,-1,-1,-1,-1,-1,-1,-1,-1,-1,-1,-1,-1,-1,-1,-1,-1,-1,-1,-1,-1,-1,-1,-1,-1],"split_conditions":[7.09E0,2.04E0,8.79E0,5.92E0,1.26E0,9.6E0,4.4E1,9.88E2,1.86E0,3.88E0,3.67E0,8.59E2,3.6E1,3.6E1,-2.5E0,1E0,2.949012E-1,7.79E0,1.7910448E-1,1.2E-1,2.54E0,3.44E0,6.1014495E0,1.2970297E-1,1.57E0,1.57E0,8.7E2,-5.54378E-2,2.6738713E-2,7.59E2,-8.369567E-2,1.2983193E0,2.2695267E-1,-9.919584E-2,2.86E0,-6.1654236E-2,4.67E0,3.3757712E-3,4E0,1.57E0,2.7655616E-1,2.4370547E-1,2.75E0,4.56E2,-9.947037E-2,4.63E0,6.26E2,-9.644291E-2,7.427536E0,1.75E0,9.13E2,6.442782E-2,1.2955057E-2,1.53E2,9.41E2,-6.596049E-2,1.98802E-2,7.255049E-3,-4.0281015E-3,-2.3208171E-2,5.9579898E-2,5.1852733E-2,-1.36491405E-2,5.017071E-4,6.0358535E-2,8.431803E-3,5.67544E-2,3.055174E-2,-5.2353095E-2,2.0889971E-2,-3.85728E-2,-2.8404385E-2,-9.181508E-2,2.8464336E-2,-3.9009947E-2,4.3577768E-2,-4.9349986E-2,-4.122933E-3,-2.0333156E-2,6.265749E-2,-1.9027382E-2,-4.6292447E-2,1.0266497E-2,-7.501373E-2,4.598061E-3,4.4465862E-2,-3.2227915E-3,-5.611021E-2,-2.2957108E-3,-8.489714E-2,-1.6803306E-3],"split_indices":[6,11,1,6,6,6,17,17,10,1,1,17,17,17,8,8,4,2,14,6,0,2,13,14,10,10,17,0,0,17,0,14,4,0,2,0,1,0,1,10,4,4,0,17,0,6,17,0,13,9,17,0,0,17,17,0,0,0,0,0,0,0,0,0,0,0,0,0,0,0,0,0,0,0,0,0,0,0,0,0,0,0,0,0,0,0,0,0,0,0,0],"split_type":[0,0,0,0,0,0,0,0,0,0,0,0,0,0,0,0,0,0,0,0,0,0,0,0,0,0,0,0,0,0,0,0,0,0,0,0,0,0,0,0,0,0,0,0,0,0,0,0,0,0,0,0,0,0,0,0,0,0,0,0,0,0,0,0,0,0,0,0,0,0,0,0,0,0,0,0,0,0,0,0,0,0,0,0,0,0,0,0,0,0,0],"sum_hessian":[2.2879194E3,2.1150493E3,1.7287007E2,1.3941921E3,7.208573E2,1.5396715E2,1.890293E1,1.3699923E3,2.419973E1,2.120753E2,5.08782E2,8.432434E1,6.96428E1,2.669716E0,1.6233213E1,1.3588657E3,1.11265955E1,7.010276E0,1.7189455E1,1.9223807E2,1.9837229E1,1.1431686E1,4.973503E2,6.4260445E1,2.0063896E1,5.5896745E0,6.405313E1,1.4755124E0,1.1942035E0,4.4173937E0,1.1815821E1,1.339143E3,1.9722775E1,6.1374283E0,4.989167E0,1.2360396E0,5.7742367E0,1.7145276E0,1.5474927E1,1.7011242E1,1.7522684E2,1.0109897E1,9.727331E0,5.808511E0,5.6231756E0,4.8951956E2,7.8307424E0,9.709705E0,5.455074E1,5.922033E0,1.4141863E1,4.1288967E0,1.4607774E0,5.6141464E1,7.911663E0,2.9434738E0,1.4739199E0,1.0741072E3,2.6503586E2,4.3147454E0,1.540803E1,3.0834787E0,1.9056885E0,1.7023857E0,4.071851E0,1.4283471E0,1.4046579E1,3.8727481E0,1.31384945E1,1.6509619E2,1.0130641E1,5.4184093E0,4.6914873E0,3.8499622E0,5.877369E0,2.158628E0,3.649883E0,3.5479114E2,1.3472844E2,5.3605213E0,2.4702213E0,4.6484077E1,8.066663E0,2.4851818E0,3.436851E0,8.498435E0,5.643428E0,4.9549747E0,5.118649E1,4.2339344E0,3.6777291E0],"tree_param":{"num_deleted":"0","num_feature":"18","num_nodes":"91","size_leaf_vector":"1"}},{"base_weights":[-2.1900473E-2,-5.583139E-1,4.061161E-2,-1.2663444E0,-4.6320304E-1,1.2262645E-2,3.02307E-1,-2.4785417E-1,-7.8736454E-2,-5.982571E-1,-8.433946E-2,-3.982713E-1,1.9797292E-2,3.724247E-1,-2.341656E-1,-5.8878552E-2,2.898081E-1,-1.5329331E-1,-8.058996E-1,-3.2583794E-1,2.6539E-1,-1.030461E0,1.8552086E-1,1.0847702E0,1.1714434E-2,6.2018644E-2,3.3988118E-1,2.3949431E-1,-8.198836E-1,3.0182278E-2,-6.4692604E-3,-4.6030015E-1,5.8784336E-1,-1.0269771E0,-4.7408372E-1,4.767122E-1,-6.2936944E-1,5.383469E-1,-5.4278433E-1,-1.303554E0,-7.951596E-3,4.8267862E-1,-8.340391E-1,6.248063E-2,-2.5266085E-3,5.8276916E-1,6.2896935E-3,-5.919211E-1,4.0615705E-1,-8.6860694E-2,8.1204313E-1,-5.9007913E-2,-9.5910385E-2,-6.2669955E-2,-3.434004E-3,-3.074146E-3,6.488579E-2,-4.09618E-2,-8.212783E-2,1.1004723E-2,-4.4862796E-2,-2.2522239E-2,4.4757128E-2,-4.898197E-2,2.157667E-2,-3.163981E-2,4.0430326E-2,-5.6532152E-2,-9.19762E-3,-8.842046E-3,-7.4613616E-2,4.2508267E-2,-6.0430128E-2,-7.642049E-3,4.820509E-2,2.6625222E-2,-7.541033E-2,-1.0510673E-2,5.2883655E-2,-3.9363876E-3,2.5643066E-3,-8.698675E-2,-5.4325745E-3,3.0158928E-2,1.1192731E-2,5.1131334E-2,1.7131722E-2,-6.8028055E-2,2.0719005E-2],"categories":[],"categories_nodes":[],"categories_segments":[],"categories_sizes":[],"default_left":[0,0,0,0,0,0,0,0,0,0,0,0,0,0,0,0,0,0,0,0,0,0,0,0,0,0,0,0,0,0,0,0,0,0,0,0,0,0,0,0,0,0,0,0,0,0,0,0,0,0,0,0,0,0,0,0,0,0,0,0,0,0,0,0,0,0,0,0,0,0,0,0,0,0,0,0,0,0,0,0,0,0,0,0,0,0,0,0,0],"id":8,"left_children":[1,3,5,7,9,11,13,15,-1,17,19,21,23,25,27,-1,29,31,33,35,37,39,41,43,45,-1,47,49,51,-1,-1,53,55,57,59,61,63,65,67,69,71,73,75,-1,-1,77,79,81,83,-1,85,87,-1,-1,-1,-1,-1,-1,-1,-1,-1,-1,-1,-1,-1,-1,-1,-1,-1,-1,-1,-1,-1,-1,-1,-1,-1,-1,-1,-1,-1,-1,-1,-1,-1,-1,-1,-1,-1],"loss_changes":[7.5907616E1,1.5324142E1,1.5039893E1,8.21666E0,1.0687786E1,5.670401E0,7.540941E0,4.1181536E0,0E0,1.4155945E1,4.842839E0,1.2385037E1,1.5469492E1,4.539364E0,6.721257E0,0E0,8.134757E-1,1.1740344E1,7.226021E0,8.524248E0,5.4882092E0,4.4616356E0,5.8635426E0,2.5965338E0,5.5291715E0,0E0,1.077989E1,1.7003328E1,8.863504E0,0E0,0E0,1.1158878E1,7.088E0,6.6140366E0,1.3093122E1,4.218238E0,9.685856E0,6.2435784E0,1.151494E0,2.4222927E0,5.5421076E0,4.61133E0,4.888467E0,0E0,0E0,6.54753E0,6.7760763E0,6.3229547E0,5.60903E0,0E0,7.729869E-1,5.1092944E0,0E0,0E0,0E0,0E0,0E0,0E0,0E0,0E0,0E0,0E0,0E0,0E0,0E0,0E0,0E0,0E0,0E0,0E0,0E0,0E0,0E0,0E0,0E0,0E0,0E0,0E0,0E0,0E0,0E0,0E0,0E0,0E0,0E0,0E0,0E0,0E0,0E0],"parents":[2147483647,0,0,1,1,2,2,3,3,4,4,5,5,6,6,7,7,9,9,10,10,11,11,12,12,13,13,14,14,16,16,17,17,18,18,19,19,20,20,21,21,22,22,23,23,24,24,26,26,27,27,28,28,31,31,32,32,33,33,34,34,35,35,36,36,37,37,38,38,39,39,40,40,41,41,42,42,45,45,46,46,47,47,48,48,50,50,51,51],"right_children":[2,4,6,8,10,12,14,16,-1,18,20,22,24,26,28,-1,30,32,34,36,38,40,42,44,46,-1,48,50,52,-1,-1,54,56,58,60,62,64,66,68,70,72,74,76,-1,-1,78,80,82,84,-1,86,88,-1,-1,-1,-1,-1,-1,-1,-1,-1,-1,-1,-1,-1,-1,-1,-1,-1,-1,-1,-1,-1,-1,-1,-1,-1,-1,-1,-1,-1,-1,-1,-1,-1,-1,-1,-1,-1],"split_conditions":[1.948961E-1,8.131147E-2,3.0411607E-1,1.25E0,7.50106E-1,1.57E0,3.2473156E-1,1.22E0,-7.8736454E-2,6.27E0,8.4632784E-2,1.68E0,1.6052906E-1,3E-2,1.44E0,-5.8878552E-2,1.644E1,6.6493994E-1,7.1782017E-1,6.948756E-2,3.2E0,2.62E0,1.4923081E-1,1.64E0,1.4E0,6.2018644E-2,1.5E-1,6.6E-1,3.9E-1,3.0182278E-2,-6.4692604E-3,1.8283348E-1,1.3804811E-1,1.67E0,7.276332E-1,1.41E0,1.66E0,2.38E0,7.683199E-1,4.15E0,1.6517003E-1,2.1314819E-1,1.73E0,6.248063E-2,-2.5266085E-3,2.11E0,2.5646466E-1,2.25E0,2.38E0,-8.6860694E-2,3.53E0,2.62E0,-9.5910385E-2,-6.2669955E-2,-3.434004E-3,-3.074146E-3,6.488579E-2,-4.09618E-2,-8.212783E-2,1.1004723E-2,-4.4862796E-2,-2.2522239E-2,4.4757128E-2,-4.898197E-2,2.157667E-2,-3.163981E-2,4.0430326E-2,-5.6532152E-2,-9.19762E-3,-8.842046E-3,-7.4613616E-2,4.2508267E-2,-6.0430128E-2,-7.642049E-3,4.820509E-2,2.6625222E-2,-7.541033E-2,-1.0510673E-2,5.2883655E-2,-3.9363876E-3,2.5643066E-3,-8.698675E-2,-5.4325745E-3,3.0158928E-2,1.1192731E-2,5.1131334E-2,1.7131722E-2,-6.8028055E-2,2.0719005E-2],"split_indices":[4,14,4,10,3,2,4,10,0,6,5,10,3,6,11,0,2,5,3,5,11,11,3,2,10,0,6,6,6,0,0,4,3,10,3,10,10,11,3,6,3,4,10,0,0,6,4,10,10,0,2,10,0,0,0,0,0,0,0,0,0,0,0,0,0,0,0,0,0,0,0,0,0,0,0,0,0,0,0,0,0,0,0,0,0,0,0,0,0],"split_type":[0,0,0,0,0,0,0,0,0,0,0,0,0,0,0,0,0,0,0,0,0,0,0,0,0,0,0,0,0,0,0,0,0,0,0,0,0,0,0,0,0,0,0,0,0,0,0,0,0,0,0,0,0,0,0,0,0,0,0,0,0,0,0,0,0,0,0,0,0,0,0,0,0,0,0,0,0,0,0,0,0,0,0,0,0,0,0,0,0],"sum_hessian":[2.2620386E3,2.3526955E2,2.026769E3,2.6403143E1,2.0886641E2,1.829617E3,1.9715208E2,6.555676E0,1.9847467E1,1.5355084E2,5.5315575E1,3.2039673E1,1.7975773E3,1.7463309E2,2.2518988E1,1.965975E0,4.589701E0,4.940898E1,1.0414185E2,3.276127E1,2.2554306E1,1.5014896E1,1.7024776E1,1.2536976E1,1.7850403E3,4.9698877E0,1.6966321E2,1.277731E1,9.741677E0,2.3730516E0,2.2166495E0,3.520476E1,1.4204218E1,6.1242836E1,4.2899017E1,8.833793E0,2.3927475E1,1.7109522E1,5.444783E0,1.1633065E1,3.3818312E0,1.3590356E1,3.4344213E0,1.0859521E1,1.6774547E0,1.5795941E1,1.7692444E3,1.0739569E1,1.5892363E2,2.4128478E0,1.0364463E1,6.3773947E0,3.3642828E0,1.0909854E1,2.4294909E1,7.895513E0,6.308705E0,4.7532692E1,1.3710144E1,1.6428822E1,2.6470196E1,2.723207E0,6.110586E0,1.8045977E1,5.8814993E0,2.9564793E0,1.4153043E1,1.2485083E0,4.1962748E0,1.946837E0,9.686228E0,2.1424875E0,1.2393435E0,6.151877E0,7.438479E0,1.2040107E0,2.2304106E0,6.125347E0,9.670594E0,6.1205743E2,1.1571869E3,2.4116738E0,8.327894E0,7.526888E1,8.3654755E1,6.341177E0,4.023286E0,1.2010593E0,5.176336E0],"tree_param":{"num_deleted":"0","num_feature":"18","num_nodes":"89","size_leaf_vector":"1"}},{"base_weights":[1.6100289E-3,-3.324029E-1,6.0583793E-2,-2.747036E-1,-1.2851051E0,7.5683904E-1,5.1543742E-2,-2.1416621E-1,-9.182089E-1,-4.5408103E-1,-1.3902068E0,-2.2208294E-2,8.899373E-1,4.689381E-2,8.847807E-1,-3.0024797E-1,1.8623577E-1,-6.481966E-3,-1.231162E0,2.4486354E-2,-5.4893173E-2,-7.79318E-2,-8.417834E-1,9.7212714E-1,-4.802247E-3,-1.0038226E0,4.955984E-2,-1.632714E-2,1.1780851E0,-3.290326E-1,6.493462E-1,3.3399048E-1,-5.412424E-1,-5.0292945E-1,4.6104517E-2,-9.0219535E-2,-6.2942064E-1,3.356489E-2,-6.786053E-2,7.695886E-4,1.0557308E0,-7.761703E-2,2.0453697E-2,-2.639622E-2,8.500269E-2,1.4770651E-2,1.2640274E0,2.601218E-2,-1.7627647E-2,5.6784954E-2,2.2110231E-3,2.877302E-2,-1.1258261E-2,9.142403E-3,-7.325128E-2,-7.448322E-2,2.5140945E-2,1.1386047E-2,-6.489083E-2,8.568288E-3,5.5841446E-2,-5.4168653E-2,3.5244136E-4,1.3338082E-2,2.22586E-3,1.6771087E-2,6.8548724E-2],"categories":[],"categories_nodes":[],"categories_segments":[],"categories_sizes":[],"default_left":[0,0,0,0,0,0,0,0,0,0,0,0,0,0,0,0,0,0,0,0,0,0,0,0,0,0,0,0,0,0,0,0,0,0,0,0,0,0,0,0,0,0,0,0,0,0,0,0,0,0,0,0,0,0,0,0,0,0,0,0,0,0,0,0,0,0,0],"id":9,"left_children":[1,3,5,7,9,11,13,15,17,19,21,-1,23,25,27,29,31,33,35,-1,-1,-1,37,39,-1,41,43,-1,45,47,49,51,53,55,-1,-1,57,-1,-1,-1,59,-1,-1,61,63,-1,65,-1,-1,-1,-1,-1,-1,-1,-1,-1,-1,-1,-1,-1,-1,-1,-1,-1,-1,-1,-1],"loss_changes":[4.5003418E1,1.8493584E1,1.2183008E1,1.2446337E1,1.0550232E0,4.3621073E0,7.3897176E0,1.0325187E1,7.8675995E0,2.7570539E0,2.2631073E-1,0E0,1.9307251E0,5.3956165E0,4.146487E0,6.9269524E0,5.9138894E0,4.178676E0,5.950369E0,0E0,0E0,0E0,5.6584396E0,1.6649265E0,0E0,4.414724E0,5.129388E0,0E0,2.8967762E-1,4.95837E0,2.1753652E0,6.198863E0,6.5460963E0,6.6024923E0,0E0,0E0,6.9172606E0,0E0,0E0,0E0,8.5222626E-1,0E0,0E0,2.1455103E1,9.54554E0,0E0,3.0092812E-1,0E0,0E0,0E0,0E0,0E0,0E0,0E0,0E0,0E0,0E0,0E0,0E0,0E0,0E0,0E0,0E0,0E0,0E0,0E0,0E0],"parents":[2147483647,0,0,1,1,2,2,3,3,4,4,5,5,6,6,7,7,8,8,9,9,10,10,12,12,13,13,14,14,15,15,16,16,17,17,18,18,22,22,23,23,25,25,26,26,28,28,29,29,30,30,31,31,32,32,33,33,36,36,40,40,43,43,44,44,46,46],"right_children":[2,4,6,8,10,12,14,16,18,20,22,-1,24,26,28,30,32,34,36,-1,-1,-1,38,40,-1,42,44,-1,46,48,50,52,54,56,-1,-1,58,-1,-1,-1,60,-1,-1,62,64,-1,66,-1,-1,-1,-1,-1,-1,-1,-1,-1,-1,-1,-1,-1,-1,-1,-1,-1,-1,-1,-1],"split_conditions":[2.1210597E-1,8.79E0,1.44E0,2.0692605E-1,1.378E1,1.36E0,6.51E0,1.9819528E-1,1.46E0,3.03E2,6.64E2,-2.2208294E-2,9.36E2,2.5165564E-1,1.99E2,9.81E2,6.2E0,5.48E2,5.53E2,2.4486354E-2,-5.4893173E-2,-7.79318E-2,8E2,2.12E2,-4.802247E-3,8.59E2,2.08E0,-1.632714E-2,2.99E2,-2E0,6.19E0,2.4E0,4.29E2,4.214852E-2,4.6104517E-2,-9.0219535E-2,6.47E2,3.356489E-2,-6.786053E-2,7.695886E-4,1.97E0,-7.761703E-2,2.0453697E-2,1.69E0,2.28E0,1.4770651E-2,4.18E0,2.601218E-2,-1.7627647E-2,5.6784954E-2,2.2110231E-3,2.877302E-2,-1.1258261E-2,9.142403E-3,-7.325128E-2,-7.448322E-2,2.5140945E-2,1.1386047E-2,-6.489083E-2,8.568288E-3,5.5841446E-2,-5.4168653E-2,3.5244136E-4,1.3338082E-2,2.22586E-3,1.6771087E-2,6.8548724E-2],"split_indices":[4,1,11,4,6,11,0,4,0,17,17,0,17,13,17,17,0,17,17,0,0,0,17,17,0,17,0,0,17,8,6,11,17,12,0,0,17,0,0,0,0,0,0,6,0,0,1,0,0,0,0,0,0,0,0,0,0,0,0,0,0,0,0,0,0,0,0],"split_type":[0,0,0,0,0,0,0,0,0,0,0,0,0,0,0,0,0,0,0,0,0,0,0,0,0,0,0,0,0,0,0,0,0,0,0,0,0,0,0,0,0,0,0,0,0,0,0,0,0,0,0,0,0,0,0,0,0,0,0,0,0,0,0,0,0,0,0],"sum_hessian":[2.2826472E3,3.4185092E2,1.9407963E3,3.235442E2,1.830674E1,2.381569E1,1.9169806E3,2.9694232E2,2.6601868E1,2.6526906E0,1.565405E1,2.1428313E0,2.167286E1,1.9073925E3,9.588049E0,2.4460518E2,5.2337135E1,7.0586367E0,1.954323E1,1.1727275E0,1.4799633E0,1.0566794E1,5.0872555E0,2.0018225E1,1.6546347E0,3.8770413E0,1.9035155E3,1.8469543E0,7.7410946E0,2.38043E2,6.5621867E0,4.3951286E1,8.385849E0,4.898246E0,2.1603909E0,8.985182E0,1.0558048E1,1.2157891E0,3.8714664E0,1.7038612E0,1.8314363E1,2.7217166E0,1.1553247E0,6.057066E2,1.2978088E3,1.0805562E0,6.6605387E0,5.8457355E0,2.3219725E2,3.152031E0,3.4101558E0,3.0675148E1,1.3276139E1,5.150663E0,3.2351863E0,2.2296228E0,2.6686232E0,4.9147477E0,5.643301E0,1.4293894E0,1.6884974E1,1.7615164E1,5.880915E2,2.3539912E2,1.0624097E3,1.1150504E0,5.545488E0],"tree_param":{"num_deleted":"0","num_feature":"18","num_nodes":"67","size_leaf_vector":"1"}},{"base_weights":[1.7446835E-2,9.047771E-2,-2.9702467E-1,8.281884E-2,8.314293E-1,4.6582553E-1,-3.325036E-1,-7.876304E-2,8.5471705E-2,-1.0572095E-1,1.1430715E0,8.00304E-1,-7.206773E-2,-2.966037E-1,-1.0568441E0,7.877288E-2,6.7563504E-1,-5.9861373E-2,4.8255733E-1,-2.3614166E-3,6.542101E-2,1.0384228E0,-4.4664687E-1,-1.1083333E0,-2.600053E-1,-3.8185427E-1,-7.346312E-2,7.404057E-2,9.1509897E-1,-3.2450968E-1,1.0956658E0,4.7822982E-2,-1.03652235E-2,1.1406151E0,8.722974E-3,2.3706576E-2,-5.740059E-2,3.050359E-1,-1.6872762E0,3.4021378E-1,-3.0564648E-1,-5.6223568E-2,9.009134E-3,4.1266093E-3,-2.8606016E-2,6.0958274E-2,-1.1875818E-2,1.2631737E-2,-7.188471E-2,6.283086E-2,-4.548336E-3,3.33606E-2,7.392254E-2,4.495454E-2,-1.636649E-2,-3.7690237E-2,-9.715285E-2,-5.887384E-2,3.666221E-2,2.970585E-2,-1.630194E-2,9.19935E-3,-1.0140338E-2],"categories":[],"categories_nodes":[],"categories_segments":[],"categories_sizes":[],"default_left":[0,0,0,0,0,0,0,0,0,0,0,0,0,0,0,0,0,0,0,0,0,0,0,0,0,0,0,0,0,0,0,0,0,0,0,0,0,0,0,0,0,0,0,0,0,0,0,0,0,0,0,0,0,0,0,0,0,0,0,0,0,0,0],"id":10,"left_children":[1,3,5,7,9,11,13,-1,15,17,19,21,-1,23,25,27,29,-1,31,-1,-1,33,35,37,39,41,-1,43,45,47,49,-1,-1,51,-1,-1,-1,53,55,57,59,-1,61,-1,-1,-1,-1,-1,-1,-1,-1,-1,-1,-1,-1,-1,-1,-1,-1,-1,-1,-1,-1],"loss_changes":[5.180614E1,1.0318654E1,1.1661537E1,8.108642E0,5.557831E0,1.3471993E1,1.0265797E1,0E0,7.105915E0,4.14858E0,2.8280487E0,5.532954E0,0E0,1.1268677E1,4.6784134E0,7.023324E0,8.838155E0,0E0,1.6126578E0,0E0,0E0,1.0931959E0,2.7636986E0,1.3996574E1,1.0336962E1,2.4743052E0,0E0,9.828789E0,3.7918787E0,4.695734E0,2.8738708E0,0E0,0E0,1.0778122E0,0E0,0E0,0E0,2.411036E0,1.3626595E0,1.6891403E1,6.5727997E0,0E0,2.8022793E-1,0E0,0E0,0E0,0E0,0E0,0E0,0E0,0E0,0E0,0E0,0E0,0E0,0E0,0E0,0E0,0E0,0E0,0E0,0E0,0E0],"parents":[2147483647,0,0,1,1,2,2,3,3,4,4,5,5,6,6,8,8,9,9,10,10,11,11,13,13,14,14,15,15,16,16,18,18,21,21,22,22,23,23,24,24,25,25,27,27,28,28,29,29,30,30,33,33,37,37,38,38,39,39,40,40,42,42],"right_children":[2,4,6,8,10,12,14,-1,16,18,20,22,-1,24,26,28,30,-1,32,-1,-1,34,36,38,40,42,-1,44,46,48,50,-1,-1,52,-1,-1,-1,54,56,58,60,-1,62,-1,-1,-1,-1,-1,-1,-1,-1,-1,-1,-1,-1,-1,-1,-1,-1,-1,-1,-1,-1],"split_conditions":[4.35E0,6.04E0,1.96E0,1.61E0,1.57E0,6.9548874E0,8.79E0,-7.876304E-2,3E0,6.51E0,3.83E0,2.02E0,-7.206773E-2,4.4E0,1.25E0,5.07947E0,8.6E-1,-5.9861373E-2,6.69E0,-2.3614166E-3,6.542101E-2,6.958944E-1,4.45E0,2.54E0,3.62E0,1.22E0,-7.346312E-2,4.6145564E-1,6.5615284E-1,2.87E0,3.12E0,4.7822982E-2,-1.03652235E-2,2E0,8.722974E-3,2.3706576E-2,-5.740059E-2,1.76E0,1.64E0,2.87E0,-2E0,-5.6223568E-2,1.558E1,4.1266093E-3,-2.8606016E-2,6.0958274E-2,-1.1875818E-2,1.2631737E-2,-7.188471E-2,6.283086E-2,-4.548336E-3,3.33606E-2,7.392254E-2,4.495454E-2,-1.636649E-2,-3.7690237E-2,-9.715285E-2,-5.887384E-2,3.666221E-2,2.970585E-2,-1.630194E-2,9.19935E-3,-1.0140338E-2],"split_indices":[1,0,11,2,2,13,1,0,10,0,1,10,0,1,10,13,6,0,0,0,0,3,1,6,6,10,0,7,3,1,1,0,0,10,0,0,0,0,2,6,8,0,6,0,0,0,0,0,0,0,0,0,0,0,0,0,0,0,0,0,0,0,0],"split_type":[0,0,0,0,0,0,0,0,0,0,0,0,0,0,0,0,0,0,0,0,0,0,0,0,0,0,0,0,0,0,0,0,0,0,0,0,0,0,0,0,0,0,0,0,0,0,0,0,0,0,0,0,0,0,0,0,0,0,0,0,0,0,0],"sum_hessian":[2.2535925E3,1.8294458E3,4.2414673E2,1.8118296E3,1.7616266E1,1.8310652E1,4.0583606E2,1.9472839E0,1.8098823E3,4.561121E0,1.3055146E1,1.6072289E1,2.2383618E0,3.8801468E2,1.7821373E1,1.7906901E3,1.9192265E1,1.2348363E0,3.3262846E0,1.6794693E0,1.1375676E1,1.3635645E1,2.4366438E0,1.54763E1,3.725384E2,7.4894905E0,1.0331882E1,1.7816969E3,8.993126E0,5.74356E0,1.3448704E1,1.7426889E0,1.5835956E0,1.1907031E1,1.7286144E0,1.1936121E0,1.2430317E0,4.6347156E0,1.0841584E1,2.5870184E1,3.466682E2,1.9354193E0,5.554071E0,1.7594471E3,2.2249756E1,7.070223E0,1.9229031E0,4.2915854E0,1.4519743E0,1.1790498E1,1.6582062E0,6.1975183E0,5.7095127E0,2.1722646E0,2.4624512E0,3.1806996E0,7.660885E0,4.9108806E0,2.0959303E1,7.059272E0,3.3960895E2,3.1134665E0,2.4406044E0],"tree_param":{"num_deleted":"0","num_feature":"18","num_nodes":"63","size_leaf_vector":"1"}},{"base_weights":[-8.511046E-3,2.9045759E-2,-4.881733E-1,3.827035E-2,-1.1482681E0,-3.0162033E-1,-9.49695E-1,8.145843E-2,-1.915885E-1,-1.4765929E0,5.788856E-2,-9.14084E-1,-1.4831068E-1,-5.916542E-1,-1.3221931E0,-7.735198E-2,8.587211E-2,-1.3307312E-1,-8.5942346E-1,-9.812095E-2,-8.203494E-2,2.8402044E-2,-1.570495E-2,-1.0860351E0,6.958104E-2,6.2164205E-1,-2.5959703E-1,-1.007728E0,2.709731E-1,-7.8579195E-2,-6.3452166E-1,6.70083E-2,4.03169E-1,-5.10912E-1,-4.915834E-2,-1.3982445E0,-2.7471152E-1,2.2965105E-2,-2.1585729E-2,2.1533895E-2,-1.231196E0,5.7355966E-2,-6.0953476E-2,2.6558861E-2,1.0841944E0,-1.2031422E0,-1.5835562E-1,-5.1765144E-1,-8.519741E-2,-6.3199155E-2,8.1034E-1,1.2135453E-2,-8.7772083E-1,-4.074959E-2,3.6966843E-3,5.5314332E-2,1.5767025E-2,-3.4364935E-2,1.2170423E-2,-6.482045E-2,-4.974737E-5,-8.181807E-2,2.686472E-2,4.5513827E-2,-2.8789466E-2,-8.5248165E-2,-3.960342E-2,4.7707953E-2,-6.714543E-2,6.087301E-2,1.7752958E-2,-1.8044349E-2,-7.8641795E-2,2.421826E-2,-1.3423264E-2,-7.352417E-2,-2.8751404E-3,6.519763E-2,1.0007737E-2,-6.693572E-2,3.4778607E-3],"categories":[],"categories_nodes":[],"categories_segments":[],"categories_sizes":[],"default_left":[0,0,0,0,0,0,0,0,0,0,0,0,0,0,0,0,0,0,0,0,0,0,0,0,0,0,0,0,0,0,0,0,0,0,0,0,0,0,0,0,0,0,0,0,0,0,0,0,0,0,0,0,0,0,0,0,0,0,0,0,0,0,0,0,0,0,0,0,0,0,0,0,0,0,0,0,0,0,0,0,0],"id":11,"left_children":[1,3,5,7,9,11,13,15,17,19,21,23,25,27,29,-1,31,33,35,-1,37,-1,-1,39,41,43,45,47,49,-1,51,53,55,57,59,61,63,-1,-1,-1,65,-1,-1,67,69,71,73,75,-1,-1,77,-1,79,-1,-1,-1,-1,-1,-1,-1,-1,-1,-1,-1,-1,-1,-1,-1,-1,-1,-1,-1,-1,-1,-1,-1,-1,-1,-1,-1,-1],"loss_changes":[4.0335003E1,2.2596878E1,1.3711475E1,2.0480198E1,6.4917183E0,1.0873449E1,5.3973503E0,1.2611472E1,1.2639473E1,8.479574E0,1.017882E0,4.0130787E0,8.298635E0,9.402359E0,2.7584457E0,0E0,1.0341941E1,9.526546E0,7.8416348E0,0E0,1.0195704E0,0E0,0E0,4.9062176E0,7.5132008E0,3.3533926E0,7.8030295E0,5.045002E0,8.52884E0,0E0,1.8142357E0,1.0055407E1,5.6420746E0,7.437358E0,1.4873331E1,7.028864E0,5.435385E0,0E0,0E0,0E0,2.4772968E0,0E0,0E0,9.410041E0,2.3707008E-1,1.910039E0,5.5596623E0,5.0150886E0,0E0,0E0,1.9428315E0,0E0,2.7538066E0,0E0,0E0,0E0,0E0,0E0,0E0,0E0,0E0,0E0,0E0,0E0,0E0,0E0,0E0,0E0,0E0,0E0,0E0,0E0,0E0,0E0,0E0,0E0,0E0,0E0,0E0,0E0,0E0],"parents":[2147483647,0,0,1,1,2,2,3,3,4,4,5,5,6,6,7,7,8,8,9,9,10,10,11,11,12,12,13,13,14,14,16,16,17,17,18,18,20,20,23,23,24,24,25,25,26,26,27,27,28,28,30,30,31,31,32,32,33,33,34,34,35,35,36,36,40,40,43,43,44,44,45,45,46,46,47,47,50,50,52,52],"right_children":[2,4,6,8,10,12,14,16,18,20,22,24,26,28,30,-1,32,34,36,-1,38,-1,-1,40,42,44,46,48,50,-1,52,54,56,58,60,62,64,-1,-1,-1,66,-1,-1,68,70,72,74,76,-1,-1,78,-1,80,-1,-1,-1,-1,-1,-1,-1,-1,-1,-1,-1,-1,-1,-1,-1,-1,-1,-1,-1,-1,-1,-1,-1,-1,-1,-1,-1,-1],"split_conditions":[7.22E0,9.88E2,3E0,2.25E0,5.25E0,7.92E0,1.284E1,1.9154117E-1,9.13E2,2.949012E-1,5.55E0,8.7E2,7E1,1.192E1,4.33E0,-7.735198E-2,3.1262225E-1,2.87E2,4.53E0,-9.812095E-2,3E-1,2.8402044E-2,-1.570495E-2,1.4910313E-1,8.76E2,1.35E0,6.7089553E0,3.4E0,3.4E0,-7.8579195E-2,1.378E1,3.12E0,3.1331185E-1,5.47E0,1.3804811E-1,9.82E2,4.56E0,2.2965105E-2,-2.1585729E-2,2.1533895E-2,7.016927E-1,5.7355966E-2,-6.0953476E-2,1.28E0,1.06E1,2.05E2,9.54E0,4.26E2,-8.519741E-2,-6.3199155E-2,1.83E2,1.2135453E-2,6.64E2,-4.074959E-2,3.6966843E-3,5.5314332E-2,1.5767025E-2,-3.4364935E-2,1.2170423E-2,-6.482045E-2,-4.974737E-5,-8.181807E-2,2.686472E-2,4.5513827E-2,-2.8789466E-2,-8.5248165E-2,-3.960342E-2,4.7707953E-2,-6.714543E-2,6.087301E-2,1.7752958E-2,-1.8044349E-2,-7.8641795E-2,2.421826E-2,-1.3423264E-2,-7.352417E-2,-2.8751404E-3,6.519763E-2,1.0007737E-2,-6.693572E-2,3.4778607E-3],"split_indices":[6,17,11,11,2,6,6,4,17,4,2,17,17,2,11,0,4,17,1,0,6,0,0,13,17,0,13,11,11,0,6,1,4,0,3,17,1,0,0,0,3,0,0,0,0,17,2,17,0,0,17,0,17,0,0,0,0,0,0,0,0,0,0,0,0,0,0,0,0,0,0,0,0,0,0,0,0,0,0,0,0],"split_type":[0,0,0,0,0,0,0,0,0,0,0,0,0,0,0,0,0,0,0,0,0,0,0,0,0,0,0,0,0,0,0,0,0,0,0,0,0,0,0,0,0,0,0,0,0,0,0,0,0,0,0,0,0,0,0,0,0,0,0,0,0,0,0,0,0,0,0,0,0,0,0,0,0,0,0,0,0,0,0,0,0],"sum_hessian":[2.2372324E3,2.0756516E3,1.6158083E2,2.0604746E3,1.5176916E1,1.1624617E2,4.5334656E1,1.7351111E3,3.2536362E2,1.1753353E1,3.4235635E0,2.227929E1,9.396688E1,2.4435694E1,2.0898962E1,3.7452233E0,1.7313658E3,3.002547E2,2.5108917E1,8.414701E0,3.338651E0,1.2214273E0,2.202136E0,1.8875635E1,3.4036543E0,1.1287374E1,8.2679504E1,1.6371141E1,8.064552E0,1.4393609E1,6.505352E0,1.6353527E3,9.60132E1,5.3640743E1,2.4661395E2,1.2343163E1,1.2765755E1,1.1872232E0,2.1514277E0,1.4769397E0,1.7398695E1,1.9134789E0,1.4901754E0,5.398942E0,5.888432E0,6.9571037E0,7.5722404E1,1.06312275E1,5.739913E0,1.7476239E0,6.316928E0,1.4124813E0,5.0928707E0,1.1831562E1,1.6235211E3,9.373886E0,8.663931E1,4.3546818E1,1.0093928E1,8.205499E0,2.3840845E2,1.1128648E1,1.2145145E0,2.1764088E0,1.0589346E1,6.982636E0,1.04160595E1,3.3995445E0,1.9993975E0,4.4122615E0,1.4761704E0,2.725014E0,4.2320895E0,1.0578095E1,6.51443E1,2.747108E0,7.88412E0,2.8635035E0,3.4534245E0,3.1477792E0,1.9450914E0],"tree_param":{"num_deleted":"0","num_feature":"18","num_nodes":"81","size_leaf_vector":"1"}},{"base_weights":[-8.862414E-3,4.0154777E-2,-3.5542792E-1,1.0928488E-2,3.6387607E-1,-4.1595086E-1,3.6513746E-1,-7.376364E-2,1.4399778E-2,7.924755E-1,2.701362E-1,-1.153923E0,-3.5978466E-1,-9.191582E-1,6.215408E-1,3.3958307E-3,5.6953746E-1,2.6447564E-1,9.889023E-1,-1.3024919E-1,4.1673926E-1,-2.1788229E-1,-7.250296E-2,-5.512099E-1,-1.6264938E-1,-7.8128636E-2,1.954624E-2,-4.6692115E-1,8.505464E-1,-5.267564E-1,1.5262361E-2,6.857774E-1,-6.1647084E-2,-6.7674026E-2,6.773752E-1,5.7749968E-2,2.8624265E-2,-7.841601E-2,-1.8069139E-2,6.0425115E-1,9.413285E-2,4.20173E-2,-5.7194393E-2,-3.939281E-1,-1.2095064E0,-3.3384827E-1,3.2672426E-1,-6.1781086E-2,3.4393277E-2,1.0178176E0,3.2191783E-1,-3.993218E-2,4.4380914E-2,6.419815E-2,4.95813E-4,7.249259E-2,1.9060558E-2,5.9580334E-2,-2.6030302E-2,2.2658402E-2,-1.5089959E-2,7.42246E-3,-4.099724E-2,1.8260479E-2,5.2651912E-2,-7.658648E-2,2.2513593E-2,-4.3589834E-2,-1.1805561E-2,-6.6653855E-2,1.8007135E-2,-5.8234925E-3,-3.8739707E-2,3.0124143E-2,-1.4834073E-2,5.589534E-2,8.576602E-3,-2.0667292E-2,5.4634918E-2],"categories":[],"categories_nodes":[],"categories_segments":[],"categories_sizes":[],"default_left":[0,0,0,0,0,0,0,0,0,0,0,0,0,0,0,0,0,0,0,0,0,0,0,0,0,0,0,0,0,0,0,0,0,0,0,0,0,0,0,0,0,0,0,0,0,0,0,0,0,0,0,0,0,0,0,0,0,0,0,0,0,0,0,0,0,0,0,0,0,0,0,0,0,0,0,0,0,0,0],"id":12,"left_children":[1,3,5,7,9,11,13,-1,15,17,19,21,23,25,27,29,31,33,35,37,39,41,-1,43,45,-1,-1,47,49,51,53,55,-1,-1,57,-1,59,-1,61,63,65,-1,-1,67,69,71,73,-1,-1,75,77,-1,-1,-1,-1,-1,-1,-1,-1,-1,-1,-1,-1,-1,-1,-1,-1,-1,-1,-1,-1,-1,-1,-1,-1,-1,-1,-1,-1],"loss_changes":[3.8355824E1,1.8712593E1,1.2352955E1,9.387316E0,6.3661137E0,1.0301971E1,7.885254E0,0E0,1.1068444E1,2.7332E0,8.031621E0,4.627552E0,9.032335E0,4.0666246E0,5.1608343E0,1.1193633E1,8.224365E0,7.059248E0,3.2654934E0,5.970786E0,5.97534E0,6.3145604E0,0E0,1.2178097E1,1.0205114E1,0E0,0E0,4.371854E0,1.0998259E0,1.5688869E1,1.1789384E1,7.2959185E0,0E0,0E0,5.5435095E0,0E0,7.0840573E-1,0E0,4.862967E0,6.3609886E0,2.2600033E1,0E0,0E0,7.3458576E0,4.9581146E0,8.5143585E0,5.6345825E0,0E0,0E0,8.077984E-1,3.4796605E0,0E0,0E0,0E0,0E0,0E0,0E0,0E0,0E0,0E0,0E0,0E0,0E0,0E0,0E0,0E0,0E0,0E0,0E0,0E0,0E0,0E0,0E0,0E0,0E0,0E0,0E0,0E0,0E0],"parents":[2147483647,0,0,1,1,2,2,3,3,4,4,5,5,6,6,8,8,9,9,10,10,11,11,12,12,13,13,14,14,15,15,16,16,17,17,18,18,19,19,20,20,21,21,23,23,24,24,27,27,28,28,29,29,30,30,31,31,34,34,36,36,38,38,39,39,40,40,43,43,44,44,45,45,46,46,49,49,50,50],"right_children":[2,4,6,8,10,12,14,-1,16,18,20,22,24,26,28,30,32,34,36,38,40,42,-1,44,46,-1,-1,48,50,52,54,56,-1,-1,58,-1,60,-1,62,64,66,-1,-1,68,70,72,74,-1,-1,76,78,-1,-1,-1,-1,-1,-1,-1,-1,-1,-1,-1,-1,-1,-1,-1,-1,-1,-1,-1,-1,-1,-1,-1,-1,-1,-1,-1,-1],"split_conditions":[5.57E0,3.0640057E-1,1.99E0,1.7948164E-1,3.086676E-1,1.1000242E-1,4.6797385E0,-7.376364E-2,6.4484304E-1,2.3E0,3.7E-1,1.4114035E1,7.1180695E-1,2.4846816E-1,1.42E0,1.56E0,-1E0,-1.4425693E-1,2.45E0,2.69E0,3.9782885E-1,-2.25E0,-7.250296E-2,6.958944E-1,1.391863E-1,-7.8128636E-2,1.954624E-2,-3.370495E-2,8.23E0,1.94E0,1.8749037E-1,6.475064E-1,-6.1647084E-2,-6.7674026E-2,2.8E-1,5.7749968E-2,2.1E0,-7.841601E-2,2.75E0,3.8008553E-1,4.0944612E-1,4.20173E-2,-5.7194393E-2,1.7691688E-1,9.8E0,1.5589115E-1,3.3080807E-1,-6.1781086E-2,3.4393277E-2,2.405952E-1,2.1950394E-1,-3.993218E-2,4.4380914E-2,6.419815E-2,4.95813E-4,7.249259E-2,1.9060558E-2,5.9580334E-2,-2.6030302E-2,2.2658402E-2,-1.5089959E-2,7.42246E-3,-4.099724E-2,1.8260479E-2,5.2651912E-2,-7.658648E-2,2.2513593E-2,-4.3589834E-2,-1.1805561E-2,-6.6653855E-2,1.8007135E-2,-5.8234925E-3,-3.8739707E-2,3.0124143E-2,-1.4834073E-2,5.589534E-2,8.576602E-3,-2.0667292E-2,5.4634918E-2],"split_indices":[6,4,10,4,4,4,13,0,3,10,6,13,3,4,0,0,8,12,10,0,3,8,0,3,14,0,0,12,2,10,4,3,0,0,6,0,0,0,10,3,3,0,0,4,2,4,12,0,0,4,4,0,0,0,0,0,0,0,0,0,0,0,0,0,0,0,0,0,0,0,0,0,0,0,0,0,0,0,0],"split_type":[0,0,0,0,0,0,0,0,0,0,0,0,0,0,0,0,0,0,0,0,0,0,0,0,0,0,0,0,0,0,0,0,0,0,0,0,0,0,0,0,0,0,0,0,0,0,0,0,0,0,0,0,0,0,0,0,0,0,0,0,0,0,0,0,0,0,0,0,0,0,0,0,0,0,0,0,0,0,0],"sum_hessian":[2.2560227E3,1.9772504E3,2.7877225E2,1.8144697E3,1.6278065E2,2.5756146E2,2.1210785E1,3.240141E0,1.8112296E3,2.7875183E1,1.3490547E2,1.6833958E1,2.4072751E2,3.099736E0,1.811105E1,1.7770117E3,3.4217834E1,8.194527E0,1.9680656E1,3.618707E1,9.871841E1,4.462966E0,1.2370992E1,1.212213E2,1.1950622E2,1.9495403E0,1.1501958E0,2.9675245E0,1.5143524E1,3.795454E1,1.7390573E3,3.2726852E1,1.4909827E0,1.2029094E0,6.991617E0,1.660564E1,3.0750155E0,1.6792935E0,3.4507774E1,6.1878876E1,3.6839535E1,2.1259546E0,2.3370113E0,9.913429E1,2.2087E1,8.876954E1,3.073668E1,1.7395608E0,1.2279637E0,1.0800566E1,4.3429585E0,3.2200024E1,5.754516E0,6.2937717E0,1.7327634E3,8.255543E0,2.447131E1,4.8955374E0,2.09608E0,1.183247E0,1.8917687E0,2.924881E1,5.2589655E0,4.15575E1,2.0321377E1,6.026436E0,3.0813099E1,2.3488167E1,7.5646126E1,2.0614815E1,1.4721854E0,6.0304592E1,2.8464947E1,2.1333525E1,9.403154E0,9.371279E0,1.429287E0,2.4600222E0,1.8829362E0],"tree_param":{"num_deleted":"0","num_feature":"18","num_nodes":"79","size_leaf_vector":"1"}},{"base_weights":[5.2349307E-3,-1.599492E-1,1.1476882E-1,1.8178417E-1,-2.1497695E-1,-1.1026096E0,1.216208E-1,3.000013E-1,-1.3040991E0,-8.3339745E-1,-1.8980183E-1,-1.4155536E0,8.290405E-3,9.470735E-1,1.15372516E-1,3.3794442E-1,-6.336578E-2,-8.095282E-2,2.3926107E-2,-1.0948945E0,-2.4837042E-1,-8.301871E-2,-1.827826E-1,-9.021097E-2,-5.5412453E-1,-2.0145526E-2,6.843484E-2,1.258955E-1,-4.150172E-1,2.6861033E-1,9.4236016E-1,-1.2920536E0,-5.4658407E-1,5.112737E-1,-7.997598E-1,-1.9504598E-1,3.7719986E-1,-6.563188E-2,2.3328563E-2,8.333723E-2,2.6500094E-1,8.7371625E-2,-1.4135542E0,1.9825712E-2,-2.0498028E-2,5.6768544E-2,-7.4299425E-3,-9.401875E-3,-7.470957E-2,-7.193479E-2,2.750121E-2,8.1698195E-4,4.0985208E-2,-1.2427128E-2,-5.7383746E-2,-2.3588913E-2,-8.266017E-3,-1.6151328E-4,5.772695E-2,6.255589E-3,-6.139757E-3,-1.5337379E-3,1.6434051E-2,-1.2407414E-2,2.2949202E-2,-8.687746E-2,-1.4666949E-2],"categories":[],"categories_nodes":[],"categories_segments":[],"categories_sizes":[],"default_left":[0,0,0,0,0,0,0,0,0,0,0,0,0,0,0,0,0,0,0,0,0,0,0,0,0,0,0,0,0,0,0,0,0,0,0,0,0,0,0,0,0,0,0,0,0,0,0,0,0,0,0,0,0,0,0,0,0,0,0,0,0,0,0,0,0,0,0],"id":13,"left_children":[1,3,5,7,9,11,13,15,17,19,21,23,-1,25,27,29,-1,-1,-1,31,33,-1,35,-1,37,-1,-1,39,41,43,45,47,49,51,53,55,57,-1,-1,59,61,63,65,-1,-1,-1,-1,-1,-1,-1,-1,-1,-1,-1,-1,-1,-1,-1,-1,-1,-1,-1,-1,-1,-1,-1,-1],"loss_changes":[4.1083454E1,1.7064072E1,1.1522539E1,2.2542854E1,1.1989315E1,3.3073645E0,6.8976326E0,7.4234114E0,6.0977116E0,4.3520412E0,7.4487476E0,1.1141405E0,0E0,6.2817497E0,7.5840454E0,4.5927773E0,0E0,0E0,0E0,1.5202141E0,4.8614807E0,0E0,5.2142487E0,0E0,3.2496147E0,0E0,0E0,7.81604E0,1.3410107E1,9.28739E0,2.5904741E0,2.9359512E0,7.8156395E0,7.622125E-1,9.7077703E-1,5.9532833E0,4.8485675E0,0E0,0E0,8.757999E0,5.84153E0,2.4282866E0,2.7290192E0,0E0,0E0,0E0,0E0,0E0,0E0,0E0,0E0,0E0,0E0,0E0,0E0,0E0,0E0,0E0,0E0,0E0,0E0,0E0,0E0,0E0,0E0,0E0,0E0],"parents":[2147483647,0,0,1,1,2,2,3,3,4,4,5,5,6,6,7,7,8,8,9,9,10,10,11,11,13,13,14,14,15,15,19,19,20,20,22,22,24,24,27,27,28,28,29,29,30,30,31,31,32,32,33,33,34,34,35,35,36,36,39,39,40,40,41,41,42,42],"right_children":[2,4,6,8,10,12,14,16,18,20,22,24,-1,26,28,30,-1,-1,-1,32,34,-1,36,-1,38,-1,-1,40,42,44,46,48,50,52,54,56,58,-1,-1,60,62,64,66,-1,-1,-1,-1,-1,-1,-1,-1,-1,-1,-1,-1,-1,-1,-1,-1,-1,-1,-1,-1,-1,-1,-1,-1],"split_conditions":[2.5646466E-1,1.92E0,1.7E0,2.536624E-1,1.2E0,5.8788234E-1,2.567325E-1,6.0012245E-1,-2.8510705E-2,4E0,1.93E0,1.635888E-1,8.290405E-3,2.26E0,1.8250135E-1,5.910059E-1,-6.336578E-2,-8.095282E-2,2.3926107E-2,1.1886031E-1,1.4114035E1,-8.301871E-2,7.896076E-1,-9.021097E-2,5.71E0,-2.0145526E-2,6.843484E-2,2.2405826E-2,2.636467E-1,1.72E0,6.239118E-1,2.7E0,3.2E0,7.710716E-1,-2.5E0,1.6588357E-1,1.22E0,-6.563188E-2,2.3328563E-2,4.071868E-1,2.24E0,2.6176882E-1,3.04E0,1.9825712E-2,-2.0498028E-2,5.6768544E-2,-7.4299425E-3,-9.401875E-3,-7.470957E-2,-7.193479E-2,2.750121E-2,8.1698195E-4,4.0985208E-2,-1.2427128E-2,-5.7383746E-2,-2.3588913E-2,-8.266017E-3,-1.6151328E-4,5.772695E-2,6.255589E-3,-6.139757E-3,-1.5337379E-3,1.6434051E-2,-1.2407414E-2,2.2949202E-2,-8.687746E-2,-1.4666949E-2],"split_indices":[4,11,0,4,0,3,4,7,12,11,11,5,0,0,12,5,0,0,0,4,13,0,3,0,2,0,0,12,4,0,5,11,11,7,8,4,0,0,0,5,2,4,0,0,0,0,0,0,0,0,0,0,0,0,0,0,0,0,0,0,0,0,0,0,0,0,0],"split_type":[0,0,0,0,0,0,0,0,0,0,0,0,0,0,0,0,0,0,0,0,0,0,0,0,0,0,0,0,0,0,0,0,0,0,0,0,0,0,0,0,0,0,0,0,0,0,0,0,0,0,0,0,0,0,0,0,0,0,0,0,0,0,0,0,0,0,0],"sum_hessian":[2.268635E3,9.043527E2,1.3642822E3,1.2510737E2,7.7924536E2,6.740786E0,1.3575414E3,1.1662663E2,8.480736E0,2.9225464E1,7.500199E2,5.313773E0,1.427013E0,9.067536E0,1.3484739E3,1.14635796E2,1.9908348E0,7.2853065E0,1.195429E0,1.959521E1,9.630254E0,2.4439769E0,7.475759E2,2.907498E0,2.406275E0,2.1685374E0,6.8989987E0,1.3229883E3,2.5485596E1,1.0413465E2,1.0501144E1,1.3415057E1,6.180153E0,4.0808535E0,5.5494003E0,7.321929E2,1.5383017E1,1.2163457E0,1.1899295E0,1.0142769E3,3.087114E2,1.7562145E1,7.9234514E0,8.7969025E1,1.6165632E1,8.887987E0,1.6131568E0,2.3748088E0,1.1040248E1,3.2358098E0,2.9443433E0,1.9709978E0,2.1098554E0,2.8106847E0,2.7387156E0,6.957839E1,6.626145E2,1.0996949E1,4.386068E0,8.4368896E2,1.7058795E2,5.4797436E1,2.5391396E2,9.403863E0,8.158281E0,5.7184463E0,2.2050052E0],"tree_param":{"num_deleted":"0","num_feature":"18","num_nodes":"67","size_leaf_vector":"1"}},{"base_weights":[5.300055E-3,-1.652214E-1,7.7254765E-2,-1.1160395E0,-1.4447677E-1,4.4431306E-2,3.4453797E-1,-1.6531422E0,-1.602806E-1,4.6027344E-1,-1.7678231E-1,6.2198085E-1,2.3085766E-2,2.568704E-1,8.4826845E-1,-7.689625E-1,-9.7263075E-2,-6.3765645E-2,3.6585706E-1,1.1121209E0,1.3878636E-1,-1.530451E-1,-9.5377046E-1,7.8287464E-1,-6.947267E-1,7.15821E-1,8.886414E-3,3.0443764E-1,-9.0722847E-1,-1.7790921E-2,9.578301E-1,2.4812609E-2,-7.582271E-2,-1.8507695E-2,5.309225E-2,9.002356E-3,1.2322524E0,6.107139E-1,-1.3347765E0,-8.0478504E-2,-1.4144246E-1,-3.2936886E-1,-6.67743E-2,2.5256592E-1,1.1654446E0,-7.987912E-2,2.3294508E-1,8.5630886E-2,1.0651685E0,2.6978875E-2,-5.367271E-1,3.3615717E-1,-7.499914E-2,-2.100693E-2,-8.785753E-2,1.0399301E0,-4.080677E-3,2.3934484E-2,6.997357E-2,4.0444758E-2,-6.1200198E-2,2.310553E-2,-9.316722E-2,-2.003255E-4,-1.297308E-2,-5.4230552E-2,4.9020518E-3,-2.458657E-2,2.9254815E-2,6.2655054E-2,3.1079898E-2,2.4894224E-2,-3.6665734E-3,-7.13702E-2,2.611334E-2,7.5357825E-2,3.3029784E-2,-3.725779E-3,4.858233E-3,-3.8086493E-2,1.6575547E-2,1.7968945E-2,-6.556232E-2,2.0959856E-2,-1.734954E-2,3.7327446E-2,7.133084E-2],"categories":[],"categories_nodes":[],"categories_segments":[],"categories_sizes":[],"default_left":[0,0,0,0,0,0,0,0,0,0,0,0,0,0,0,0,0,0,0,0,0,0,0,0,0,0,0,0,0,0,0,0,0,0,0,0,0,0,0,0,0,0,0,0,0,0,0,0,0,0,0,0,0,0,0,0,0,0,0,0,0,0,0,0,0,0,0,0,0,0,0,0,0,0,0,0,0,0,0,0,0,0,0,0,0,0,0],"id":14,"left_children":[1,3,5,7,9,11,13,15,17,19,21,23,25,27,29,31,-1,-1,33,35,37,39,41,43,45,47,49,51,53,-1,55,-1,-1,-1,-1,-1,57,59,61,-1,63,65,-1,67,69,-1,71,73,75,77,79,81,-1,83,-1,85,-1,-1,-1,-1,-1,-1,-1,-1,-1,-1,-1,-1,-1,-1,-1,-1,-1,-1,-1,-1,-1,-1,-1,-1,-1,-1,-1,-1,-1,-1,-1],"loss_changes":[2.7970493E1,1.3181999E1,1.4048868E1,7.0734863E0,1.3037966E1,1.7601336E1,7.5184765E0,8.4033203E-1,4.133563E0,6.951499E0,1.1478645E1,1.1324892E1,1.3558176E1,8.618211E0,3.7094193E0,4.4408226E0,0E0,0E0,2.9665198E0,1.016221E0,1.7401632E1,1.0128173E1,3.9679031E0,9.001352E0,5.457058E0,6.0040245E0,1.3363987E1,8.831168E0,4.607049E0,0E0,2.1053505E0,0E0,0E0,0E0,0E0,0E0,5.427618E-1,7.808284E0,6.6543427E0,0E0,9.877665E0,2.7996466E0,0E0,5.356145E0,4.7676086E-1,0E0,3.503105E-1,7.987166E0,2.1738148E0,9.338112E0,8.7410555E0,5.971987E0,0E0,7.238158E-1,0E0,1.4325676E0,0E0,0E0,0E0,0E0,0E0,0E0,0E0,0E0,0E0,0E0,0E0,0E0,0E0,0E0,0E0,0E0,0E0,0E0,0E0,0E0,0E0,0E0,0E0,0E0,0E0,0E0,0E0,0E0,0E0,0E0,0E0],"parents":[2147483647,0,0,1,1,2,2,3,3,4,4,5,5,6,6,7,7,8,8,9,9,10,10,11,11,12,12,13,13,14,14,15,15,18,18,19,19,20,20,21,21,22,22,23,23,24,24,25,25,26,26,27,27,28,28,30,30,36,36,37,37,38,38,40,40,41,41,43,43,44,44,46,46,47,47,48,48,49,49,50,50,51,51,53,53,55,55],"right_children":[2,4,6,8,10,12,14,16,18,20,22,24,26,28,30,32,-1,-1,34,36,38,40,42,44,46,48,50,52,54,-1,56,-1,-1,-1,-1,-1,58,60,62,-1,64,66,-1,68,70,-1,72,74,76,78,80,82,-1,84,-1,86,-1,-1,-1,-1,-1,-1,-1,-1,-1,-1,-1,-1,-1,-1,-1,-1,-1,-1,-1,-1,-1,-1,-1,-1,-1,-1,-1,-1,-1,-1,-1],"split_conditions":[2.4334513E-1,4E0,3.059395E-1,3.34E0,1.87E0,2.8E1,9.25E2,1.99E0,2.01E0,6.0527855E-1,8.79E0,3.32E0,2.4456389E-1,9.04E2,2.29E0,5.7109445E-1,-9.7263075E-2,-6.3765645E-2,1.76E0,4.11E0,2.337931E-1,9.8E-1,1.25E0,3.43E0,3.85E0,2.84E0,9.61E2,3.9E0,2.7906543E-2,-1.7790921E-2,9.89E2,2.4812609E-2,-7.582271E-2,-1.8507695E-2,5.309225E-2,9.002356E-3,2.331714E-1,9.13E2,1.66E0,-8.0478504E-2,4.67E0,1.22E0,-6.67743E-2,2.43E0,2.04E0,-7.987912E-2,3.59E0,2.2E0,3.96E0,4.15E2,3.24E0,3.4E0,-7.499914E-2,3.07E0,-8.785753E-2,9.81E2,-4.080677E-3,2.3934484E-2,6.997357E-2,4.0444758E-2,-6.1200198E-2,2.310553E-2,-9.316722E-2,-2.003255E-4,-1.297308E-2,-5.4230552E-2,4.9020518E-3,-2.458657E-2,2.9254815E-2,6.2655054E-2,3.1079898E-2,2.4894224E-2,-3.6665734E-3,-7.13702E-2,2.611334E-2,7.5357825E-2,3.3029784E-2,-3.725779E-3,4.858233E-3,-3.8086493E-2,1.6575547E-2,1.7968945E-2,-6.556232E-2,2.0959856E-2,-1.734954E-2,3.7327446E-2,7.133084E-2],"split_indices":[4,1,4,0,11,17,17,11,11,3,1,0,4,17,0,3,0,0,10,6,4,6,10,1,0,6,17,0,7,0,17,0,0,0,0,0,4,17,11,0,6,10,0,0,10,0,1,0,1,17,6,10,0,1,0,17,0,0,0,0,0,0,0,0,0,0,0,0,0,0,0,0,0,0,0,0,0,0,0,0,0,0,0,0,0,0,0],"split_type":[0,0,0,0,0,0,0,0,0,0,0,0,0,0,0,0,0,0,0,0,0,0,0,0,0,0,0,0,0,0,0,0,0,0,0,0,0,0,0,0,0,0,0,0,0,0,0,0,0,0,0,0,0,0,0,0,0,0,0,0,0,0,0,0,0,0,0,0,0,0,0,0,0,0,0,0,0,0,0,0,0,0,0,0,0,0,0],"sum_hessian":[2.277577E3,6.754855E2,1.6020914E3,1.3295482E1,6.6219E2,1.4279052E3,1.7418628E2,8.044879E0,5.2506027E0,3.290832E1,6.292817E2,4.9889824E1,1.3780154E3,1.496514E2,2.4534895E1,2.899897E0,5.144982E0,1.2267861E0,4.0238166E0,1.0057146E1,2.2851175E1,6.117883E2,1.7493332E1,4.481868E1,5.071143E0,2.6686066E1,1.3513293E3,1.444859E2,5.1654844E0,1.8588128E0,2.2676083E1,1.201809E0,1.6980882E0,2.1832151E0,1.8406012E0,1.4335221E0,8.623624E0,1.7751562E1,5.099614E0,3.7465348E0,6.080418E2,7.3436394E0,1.0149692E1,1.9478401E1,2.5340277E1,2.20398E0,2.8671632E0,9.961524E0,1.6724543E1,1.3088777E3,4.2451633E1,1.4278954E2,1.6963644E0,3.0303876E0,2.1350968E0,2.10157E1,1.6603843E0,2.2675762E0,6.3560476E0,1.6525625E1,1.2259359E0,1.1877029E0,3.9119112E0,2.8139032E2,3.2665146E2,2.0982866E0,5.2453527E0,5.867196E0,1.3611205E1,2.0699772E1,4.640506E0,1.2018869E0,1.6652764E0,1.7227478E0,8.238776E0,6.6902595E0,1.0034283E1,5.350661E2,7.738116E2,3.3811977E1,8.639659E0,1.4157574E2,1.2137948E0,1.1676564E0,1.8627313E0,1.3615885E1,7.3998137E0],"tree_param":{"num_deleted":"0","num_feature":"18","num_nodes":"87","size_leaf_vector":"1"}},{"base_weights":[-1.645043E-2,-3.8796058E-1,3.051279E-2,-4.2799908E-1,7.738241E-1,3.703843E-2,-9.1370344E-1,-9.514468E-1,-3.6106017E-1,1.1055464E0,-8.280747E-3,-5.7991598E-2,8.199565E-2,-1.4818637E0,3.6112142E-1,-1.780788E-1,-1.1910063E0,1.5070365E-1,-4.921187E-1,2.6952315E-2,6.7847915E-2,-2.8591482E-2,-9.226757E-1,1.3473347E-1,-1.215852E-1,-9.149098E-2,2.6137669E-2,-2.1800362E-2,5.5129655E-2,2.8774137E-2,-6.2450546E-1,-5.8066213E-1,-7.176362E-2,5.890912E-2,2.1485839E-2,-2.6702657E-1,-7.621346E-1,5.208964E-1,-7.2937965E-2,-4.0892842E-1,-9.8158024E-2,1.2128275E-1,1.1818129E0,-1.5501916E-1,1.1650404E0,-5.746426E-2,1.5320994E-2,1.9738369E-2,-7.1842015E-2,-5.5739665E-3,6.13886E-2,-1.9828111E-2,4.577977E-2,-7.017099E-2,-3.1909313E-2,5.695495E-2,1.07415235E-2,1.4265296E-2,-5.546101E-3,-3.5952747E-2,5.742664E-2,5.120647E-3,3.823444E-2,6.374438E-2,1.2377446E-2,8.895863E-3,-1.5055875E-2,6.919039E-2,8.5585145E-3],"categories":[],"categories_nodes":[],"categories_segments":[],"categories_sizes":[],"default_left":[0,0,0,0,0,0,0,0,0,0,0,0,0,0,0,0,0,0,0,0,0,0,0,0,0,0,0,0,0,0,0,0,0,0,0,0,0,0,0,0,0,0,0,0,0,0,0,0,0,0,0,0,0,0,0,0,0,0,0,0,0,0,0,0,0,0,0,0,0],"id":15,"left_children":[1,3,5,7,9,11,13,15,17,19,-1,21,23,25,27,29,31,33,35,-1,-1,37,39,41,43,-1,-1,-1,-1,-1,45,47,-1,-1,49,51,53,55,57,59,-1,61,63,65,67,-1,-1,-1,-1,-1,-1,-1,-1,-1,-1,-1,-1,-1,-1,-1,-1,-1,-1,-1,-1,-1,-1,-1,-1],"loss_changes":[3.915376E1,1.2045933E1,1.2311433E1,8.209373E0,2.908702E0,8.463356E0,1.0469399E1,4.8020763E0,1.469779E1,2.0769787E-1,0E0,1.6152763E1,1.445094E1,7.7107887E0,3.4550915E0,2.908238E0,2.2210464E0,5.9781995E0,1.03606415E1,0E0,0E0,1.5061558E1,1.036689E1,1.4902609E1,1.2102655E1,0E0,0E0,0E0,0E0,0E0,2.9108374E0,6.860271E0,0E0,0E0,6.7427073E0,1.5120342E1,5.342613E0,8.490074E0,7.8065634E0,8.192603E0,0E0,1.2740912E1,8.526554E-1,1.323592E1,1.314888E0,0E0,0E0,0E0,0E0,0E0,0E0,0E0,0E0,0E0,0E0,0E0,0E0,0E0,0E0,0E0,0E0,0E0,0E0,0E0,0E0,0E0,0E0,0E0,0E0],"parents":[2147483647,0,0,1,1,2,2,3,3,4,4,5,5,6,6,7,7,8,8,9,9,11,11,12,12,13,13,14,14,15,15,16,16,17,17,18,18,21,21,22,22,23,23,24,24,30,30,31,31,34,34,35,35,36,36,37,37,38,38,39,39,41,41,42,42,43,43,44,44],"right_children":[2,4,6,8,10,12,14,16,18,20,-1,22,24,26,28,30,32,34,36,-1,-1,38,40,42,44,-1,-1,-1,-1,-1,46,48,-1,-1,50,52,54,56,58,60,-1,62,64,66,68,-1,-1,-1,-1,-1,-1,-1,-1,-1,-1,-1,-1,-1,-1,-1,-1,-1,-1,-1,-1,-1,-1,-1,-1],"split_conditions":[1.9819528E-1,9.81E2,9.88E2,8.131147E-2,6.04E0,2.5646466E-1,2.949012E-1,1.25E0,1.15207374E-1,1.6E0,-8.280747E-3,2.551261E-1,1.2983193E0,5.8788234E-1,3.19E0,1.644E1,3.3080807E-1,3.6E1,7.09E0,2.6952315E-2,6.7847915E-2,-6.500936E-2,1.9E0,9.82E2,3.79E0,-9.149098E-2,2.6137669E-2,-2.1800362E-2,5.5129655E-2,2.8774137E-2,6.17E2,1.2679565E-1,-7.176362E-2,5.890912E-2,1.76E0,5.9462047E-1,7.56E0,3.87E0,2.0692605E-1,4.04E0,-9.8158024E-2,1.2692307E0,3.52E0,-1.3368611E-1,1.84E0,-5.746426E-2,1.5320994E-2,1.9738369E-2,-7.1842015E-2,-5.5739665E-3,6.13886E-2,-1.9828111E-2,4.577977E-2,-7.017099E-2,-3.1909313E-2,5.695495E-2,1.07415235E-2,1.4265296E-2,-5.546101E-3,-3.5952747E-2,5.742664E-2,5.120647E-3,3.823444E-2,6.374438E-2,1.2377446E-2,8.895863E-3,-1.5055875E-2,6.919039E-2,8.5585145E-3],"split_indices":[4,17,17,14,1,4,4,10,14,10,0,4,14,3,1,2,12,17,6,0,0,12,10,17,1,0,0,0,0,0,17,4,0,0,10,7,6,1,4,0,0,14,1,12,10,0,0,0,0,0,0,0,0,0,0,0,0,0,0,0,0,0,0,0,0,0,0,0,0],"split_type":[0,0,0,0,0,0,0,0,0,0,0,0,0,0,0,0,0,0,0,0,0,0,0,0,0,0,0,0,0,0,0,0,0,0,0,0,0,0,0,0,0,0,0,0,0,0,0,0,0,0,0,0,0,0,0,0,0,0,0,0,0,0,0,0,0,0,0,0,0],"sum_hessian":[2.2424353E3,2.5084267E2,1.9915925E3,2.4309647E2,7.7462125E0,1.978877E3,1.271559E1,2.606445E1,2.1703201E2,5.594087E0,2.1521254E0,6.354277E2,1.3434492E3,8.683255E0,4.0323343E0,6.576606E0,1.9487844E1,4.4217888E1,1.7281412E2,2.685959E0,2.908128E0,6.1553204E2,1.9895634E1,1.0673019E3,2.761474E2,7.473264E0,1.2099904E0,2.1417687E0,1.8905656E0,2.3391197E0,4.237486E0,6.5353146E0,1.295253E1,4.032842E0,4.0185047E1,9.533193E1,7.7482185E1,4.5164337E1,5.7036774E2,1.4251743E1,5.64389E0,1.054867E3,1.24349375E1,2.700105E2,6.136919E0,2.559875E0,1.6776109E0,3.306824E0,3.2284904E0,3.7012825E1,3.1722238E0,8.651987E1,8.812069E0,1.0878141E1,6.660404E1,1.4054606E1,3.1109732E1,5.4053616E1,5.163141E2,1.2334063E1,1.9176809E0,1.0259374E3,2.8929516E1,1.09768E1,1.4581373E0,8.2282684E1,1.8772781E2,4.7082186E0,1.4287004E0],"tree_param":{"num_deleted":"0","num_feature":"18","num_nodes":"69","size_leaf_vector":"1"}},{"base_weights":[1.5346077E-3,6.536458E-2,-2.8116965E-1,4.711341E-2,3.8425067E-1,2.9811564E-1,-3.3912015E-1,1.1123352E-2,2.2442123E-1,6.1963594E-1,1.2123303E-1,-4.275066E-2,1.059322E0,-9.7699475E-1,-2.9177326E-1,3.659816E-2,-3.9306462E-1,1.2711419E-1,4.494595E-1,-3.4000936E-1,7.7520555E-1,-1.3718344E-1,5.705621E-1,-4.4576055E-1,7.862196E-1,1.2262965E-3,6.1496705E-2,-3.897041E-1,-1.1218219E0,8.1404966E-1,-3.2313803E-1,3.6405188E-1,1.3949672E-2,-9.934052E-2,-2.1230784E-1,2.4359426E-1,-6.141744E-1,9.660124E-2,5.8060044E-1,2.4696714E-1,-8.0292076E-2,1.7717229E-1,9.9947935E-1,2.556669E-1,-6.6333E-1,7.5700086E-1,-2.8951589E-2,-1.2952423E0,5.946687E-2,-9.35294E-3,1.0675414E0,-4.888707E-2,3.135649E-2,-6.836485E-2,-5.1412356E-1,-6.9318707E-3,1.1022325E0,-3.9096898E-1,-3.2315146E-2,-2.0574806E-2,2.7792353E-2,-1.581373E-2,2.4390349E-3,-4.84676E-3,-9.666767E-2,4.7248058E-2,8.083722E-3,-6.747996E-2,6.859114E-3,3.940653E-2,-2.6890231E-2,-2.6694018E-2,3.163596E-2,4.5001466E-2,-7.002803E-2,-8.398055E-2,3.3909567E-2,5.19107E-2,3.2527137E-3,-1.7273365E-2,2.624918E-2,-7.747008E-2,5.4820324E-3,4.5818068E-2,-1.3195038E-2,2.4091888E-3,-8.599185E-2,2.8412504E-2,-7.4102126E-2,8.038352E-3,6.283695E-2,-1.9366877E-2,3.5093606E-2,4.9910776E-2,-7.28853E-2,6.168542E-2,1.5995866E-2,-1.4155904E-2,-3.790116E-2,1.0644308E-2,-3.8873132E-2],"categories":[],"categories_nodes":[],"categories_segments":[],"categories_sizes":[],"default_left":[0,0,0,0,0,0,0,0,0,0,0,0,0,0,0,0,0,0,0,0,0,0,0,0,0,0,0,0,0,0,0,0,0,0,0,0,0,0,0,0,0,0,0,0,0,0,0,0,0,0,0,0,0,0,0,0,0,0,0,0,0,0,0,0,0,0,0,0,0,0,0,0,0,0,0,0,0,0,0,0,0,0,0,0,0,0,0,0,0,0,0,0,0,0,0,0,0,0,0,0,0],"id":16,"left_children":[1,3,5,7,9,11,13,15,17,19,21,23,25,27,29,31,33,35,37,39,41,43,45,47,49,-1,-1,51,53,55,57,59,61,-1,63,65,67,69,71,73,-1,75,77,79,81,83,-1,85,87,-1,89,-1,91,-1,93,-1,95,97,99,-1,-1,-1,-1,-1,-1,-1,-1,-1,-1,-1,-1,-1,-1,-1,-1,-1,-1,-1,-1,-1,-1,-1,-1,-1,-1,-1,-1,-1,-1,-1,-1,-1,-1,-1,-1,-1,-1,-1,-1,-1,-1],"loss_changes":[4.070391E1,1.0691837E1,1.4048985E1,1.1111861E1,6.083723E0,9.987347E0,1.1136238E1,1.4932882E1,6.3770504E0,8.064716E0,5.677927E0,9.51331E0,2.069005E0,1.7491589E0,1.2522642E1,1.0109947E1,2.4350006E1,1.7981972E1,4.0301094E0,6.329157E0,5.894657E0,6.664681E0,4.2538557E0,8.271404E0,2.7553277E0,0E0,0E0,1.6690738E0,2.2936E0,2.907382E0,6.781933E0,1.334687E1,1.4700024E1,0E0,1.53698435E1,1.0143025E1,1.5838636E1,1.14468155E1,4.065609E0,8.062265E0,0E0,1.3755832E1,1.1163025E0,3.2108052E0,9.560595E0,2.8044415E0,0E0,4.169571E0,1.098196E1,0E0,1.065774E0,0E0,1.6264379E0,0E0,1.198963E1,0E0,4.0910435E-1,1.0838192E1,1.2266763E1,0E0,0E0,0E0,0E0,0E0,0E0,0E0,0E0,0E0,0E0,0E0,0E0,0E0,0E0,0E0,0E0,0E0,0E0,0E0,0E0,0E0,0E0,0E0,0E0,0E0,0E0,0E0,0E0,0E0,0E0,0E0,0E0,0E0,0E0,0E0,0E0,0E0,0E0,0E0,0E0,0E0,0E0],"parents":[2147483647,0,0,1,1,2,2,3,3,4,4,5,5,6,6,7,7,8,8,9,9,10,10,11,11,12,12,13,13,14,14,15,15,16,16,17,17,18,18,19,19,20,20,21,21,22,22,23,23,24,24,27,27,28,28,29,29,30,30,31,31,32,32,34,34,35,35,36,36,37,37,38,38,39,39,41,41,42,42,43,43,44,44,45,45,47,47,48,48,50,50,52,52,54,54,56,56,57,57,58,58],"right_children":[2,4,6,8,10,12,14,16,18,20,22,24,26,28,30,32,34,36,38,40,42,44,46,48,50,-1,-1,52,54,56,58,60,62,-1,64,66,68,70,72,74,-1,76,78,80,82,84,-1,86,88,-1,90,-1,92,-1,94,-1,96,98,100,-1,-1,-1,-1,-1,-1,-1,-1,-1,-1,-1,-1,-1,-1,-1,-1,-1,-1,-1,-1,-1,-1,-1,-1,-1,-1,-1,-1,-1,-1,-1,-1,-1,-1,-1,-1,-1,-1,-1,-1,-1,-1],"split_conditions":[4.35E0,3.1262225E-1,3.57E0,3.21E0,3.201324E-1,8.26E2,8.131147E-2,5.301661E-1,2.08E0,2.8E-1,3E0,4.67E0,4.38E0,1.25E0,6.948756E-2,4.4E1,3.1968525E-1,2.5034344E-1,1.5884387E-1,2.82E0,2.47E0,3.2473156E-1,9.19E2,1.48E0,2.95E2,1.2262965E-3,6.1496705E-2,1.22E0,1.1886031E-1,1.41E0,8.69E2,6.6E-1,1.07E2,-9.934052E-2,2.613255E-1,3.29E0,2.572234E-1,1.56E0,7.3E1,3.5302442E-1,-8.0292076E-2,4.0944612E-1,2.7E0,5.9E-1,3.305337E-1,3.4E0,-2.8951589E-2,1.37E0,1.57E0,-9.35294E-3,3.08E0,-4.888707E-2,5.33E2,-6.836485E-2,1.18E0,-6.9318707E-3,7.21E0,2.0692605E-1,1.6243412E-1,-2.0574806E-2,2.7792353E-2,-1.581373E-2,2.4390349E-3,-4.84676E-3,-9.666767E-2,4.7248058E-2,8.083722E-3,-6.747996E-2,6.859114E-3,3.940653E-2,-2.6890231E-2,-2.6694018E-2,3.163596E-2,4.5001466E-2,-7.002803E-2,-8.398055E-2,3.3909567E-2,5.19107E-2,3.2527137E-3,-1.7273365E-2,2.624918E-2,-7.747008E-2,5.4820324E-3,4.5818068E-2,-1.3195038E-2,2.4091888E-3,-8.599185E-2,2.8412504E-2,-7.4102126E-2,8.038352E-3,6.283695E-2,-1.9366877E-2,3.5093606E-2,4.9910776E-2,-7.28853E-2,6.168542E-2,1.5995866E-2,-1.4155904E-2,-3.790116E-2,1.0644308E-2,-3.8873132E-2],"split_indices":[1,4,6,6,4,17,14,3,10,6,10,1,1,10,5,17,7,4,5,0,0,4,17,10,17,0,0,10,4,10,17,6,17,0,4,6,4,0,17,3,0,3,10,6,4,10,0,10,10,0,6,0,17,0,0,0,1,4,5,0,0,0,0,0,0,0,0,0,0,0,0,0,0,0,0,0,0,0,0,0,0,0,0,0,0,0,0,0,0,0,0,0,0,0,0,0,0,0,0,0,0],"split_type":[0,0,0,0,0,0,0,0,0,0,0,0,0,0,0,0,0,0,0,0,0,0,0,0,0,0,0,0,0,0,0,0,0,0,0,0,0,0,0,0,0,0,0,0,0,0,0,0,0,0,0,0,0,0,0,0,0,0,0,0,0,0,0,0,0,0,0,0,0,0,0,0,0,0,0,0,0,0,0,0,0,0,0,0,0,0,0,0,0,0,0,0,0,0,0,0,0,0,0,0,0],"sum_hessian":[2.2536702E3,1.839182E3,4.1448825E2,1.7407021E3,9.847982E1,3.7316864E1,3.771714E2,1.4478744E3,2.9282776E2,5.1254345E1,4.7225475E1,2.6426834E1,1.0890032E1,2.470479E1,3.5246658E2,1.3628851E3,8.498929E1,2.0552371E2,8.7304054E1,6.984465E0,4.426988E1,3.0423258E1,1.6802217E1,1.8093042E1,8.333792E0,1.7032483E0,9.186784E0,5.6172037E0,1.9087585E1,9.033116E0,3.4343347E2,8.7191345E1,1.2756937E3,7.639513E0,7.734978E1,1.7819498E2,2.7328724E1,2.4125822E1,6.317823E1,5.3216643E0,1.6628009E0,1.2562242E1,3.1707638E1,1.7712326E1,1.2710933E1,1.4751376E1,2.0508413E0,6.1644864E0,1.1928556E1,1.9438385E0,6.3899527E0,1.7921973E0,3.8250062E0,1.2705383E1,6.3822026E0,2.2183907E0,6.8147254E0,2.7820187E2,6.5231606E1,1.7060314E1,7.0131035E1,1.2094682E2,1.154747E3,7.348025E1,3.869526E0,1.7534657E1,1.6066032E2,1.3408411E1,1.3920312E1,1.1427283E1,1.2698539E1,2.4095726E0,6.0768658E1,4.135934E0,1.1857302E0,2.169533E0,1.0392709E1,3.0338928E1,1.368709E0,5.392692E0,1.23196335E1,5.4542E0,7.256733E0,1.2848201E1,1.9031757E0,1.6933165E0,4.47117E0,9.44316E0,2.4853961E0,1.4224163E0,4.9675364E0,2.6146524E0,1.210354E0,2.4298418E0,3.9523609E0,5.340246E0,1.4744792E0,2.1639131E2,6.1810555E1,4.96183E1,1.5613302E1],"tree_param":{"num_deleted":"0","num_feature":"18","num_nodes":"101","size_leaf_vector":"1"}},{"base_weights":[1.7578915E-2,-2.2540617E-1,7.1787186E-2,-3.5630095E-1,-5.343828E-2,4.1721532E-1,5.4613438E-2,-3.0073562E-1,-8.4850276E-1,-3.4910396E-1,1.275124E-1,5.50182E-1,-5.132796E-2,-5.0889105E-2,1.01610065E-1,-4.2312542E-1,-7.114362E-2,-1.824648E-1,-8.7633304E-2,-1.080204E0,-1.6537464E-1,8.9053035E-1,-1.3278388E-2,-2.4679263E-1,6.0560334E-1,6.5623015E-2,-4.4377014E-1,3.6886393E-3,-4.7529235E-1,1.3690507E-1,-7.177576E-2,-1.3286505E0,-3.103497E-1,-2.0632158E-1,1.0618322E0,1.395859E-1,-6.668388E-2,-7.939206E-2,5.030644E-2,-3.130516E-1,8.679255E-1,1.2406671E0,-6.113866E-1,9.6413076E-1,-9.144967E-2,-7.001861E-1,3.2891896E-2,9.8476213E-1,3.7806156E-1,-8.842607E-2,-9.0384096E-2,-6.1949915E-1,4.3994125E-2,5.0778348E-2,-1.150022E0,1.1975078E-1,4.4353032E-1,-3.9989042E-1,4.5571253E-1,-7.611255E-2,4.8413356E-3,-5.9214372E-2,-1.0983014E-2,-7.3861174E-2,-5.954292E-3,6.841355E-2,1.9525124E-2,-3.5070196E-2,3.4337293E-2,3.9062936E-2,-5.2829217E-2,5.947459E-3,-4.0480483E-2,4.9480605E-3,5.5670198E-2,1.3818677E-2,6.6391125E-2,-6.650325E-2,2.7557416E-2,-1.9413613E-3,6.784906E-2,-7.751363E-2,1.3198253E-3,-6.5899E-2,2.0286635E-2,-1.24868555E-2,5.5315603E-2,3.637963E-2,-1.9309817E-2,1.0299729E-2,-6.936853E-2,-4.2906016E-2,4.124646E-2,7.854879E-3,-1.0728456E-2,2.2929573E-2,-1.815666E-2,-1.08648635E-1,-2.7263E-2,-5.189495E-3,8.77725E-3,1.3199978E-2,5.7361282E-2,-9.394876E-3,-4.5298804E-2,-8.957729E-3,2.9410878E-2],"categories":[],"categories_nodes":[],"categories_segments":[],"categories_sizes":[],"default_left":[0,0,0,0,0,0,0,0,0,0,0,0,0,0,0,0,0,0,0,0,0,0,0,0,0,0,0,0,0,0,0,0,0,0,0,0,0,0,0,0,0,0,0,0,0,0,0,0,0,0,0,0,0,0,0,0,0,0,0,0,0,0,0,0,0,0,0,0,0,0,0,0,0,0,0,0,0,0,0,0,0,0,0,0,0,0,0,0,0,0,0,0,0,0,0,0,0,0,0,0,0,0,0,0,0,0,0],"id":17,"left_children":[1,3,5,7,9,11,13,15,17,19,21,23,25,27,29,31,33,35,-1,37,39,41,43,45,47,-1,49,51,53,55,57,59,61,63,65,67,-1,-1,69,71,73,75,77,79,81,83,-1,85,87,-1,89,91,93,95,97,99,101,103,105,-1,-1,-1,-1,-1,-1,-1,-1,-1,-1,-1,-1,-1,-1,-1,-1,-1,-1,-1,-1,-1,-1,-1,-1,-1,-1,-1,-1,-1,-1,-1,-1,-1,-1,-1,-1,-1,-1,-1,-1,-1,-1,-1,-1,-1,-1,-1,-1],"loss_changes":[2.9624306E1,9.215553E0,1.0884289E1,6.110834E0,9.593512E0,5.444021E0,8.695334E0,5.8906136E0,1.3568741E1,8.959433E0,1.1984776E1,3.1440983E0,1.1356665E1,1.252818E1,7.4321547E0,1.3602421E1,1.162399E1,5.523587E0,0E0,7.817026E0,8.748009E0,9.896312E0,7.352544E0,2.560038E0,5.1216774E0,0E0,7.5083537E0,1.2088018E1,2.1933914E1,5.249298E0,3.5800213E1,4.2577477E0,9.515605E0,7.2929077E0,1.1321278E0,6.074696E0,0E0,0E0,4.9899406E0,1.067969E1,1.2510204E0,8.450451E-1,4.037364E0,2.86104E0,1.5332782E1,3.1953309E0,0E0,3.7665234E0,1.1345659E1,0E0,5.66138E0,1.0784409E1,1.3250164E1,6.173563E0,1.5544422E1,1.1942148E1,6.3978558E0,1.3498745E1,6.7836475E0,0E0,0E0,0E0,0E0,0E0,0E0,0E0,0E0,0E0,0E0,0E0,0E0,0E0,0E0,0E0,0E0,0E0,0E0,0E0,0E0,0E0,0E0,0E0,0E0,0E0,0E0,0E0,0E0,0E0,0E0,0E0,0E0,0E0,0E0,0E0,0E0,0E0,0E0,0E0,0E0,0E0,0E0,0E0,0E0,0E0,0E0,0E0,0E0],"parents":[2147483647,0,0,1,1,2,2,3,3,4,4,5,5,6,6,7,7,8,8,9,9,10,10,11,11,12,12,13,13,14,14,15,15,16,16,17,17,19,19,20,20,21,21,22,22,23,23,24,24,26,26,27,27,28,28,29,29,30,30,31,31,32,32,33,33,34,34,35,35,38,38,39,39,40,40,41,41,42,42,43,43,44,44,45,45,47,47,48,48,50,50,51,51,52,52,53,53,54,54,55,55,56,56,57,57,58,58],"right_children":[2,4,6,8,10,12,14,16,18,20,22,24,26,28,30,32,34,36,-1,38,40,42,44,46,48,-1,50,52,54,56,58,60,62,64,66,68,-1,-1,70,72,74,76,78,80,82,84,-1,86,88,-1,90,92,94,96,98,100,102,104,106,-1,-1,-1,-1,-1,-1,-1,-1,-1,-1,-1,-1,-1,-1,-1,-1,-1,-1,-1,-1,-1,-1,-1,-1,-1,-1,-1,-1,-1,-1,-1,-1,-1,-1,-1,-1,-1,-1,-1,-1,-1,-1,-1,-1,-1,-1,-1,-1],"split_conditions":[2.2158167E-1,6.09E2,3.6E1,5.61E2,1.7948164E-1,2.9132888E-1,2.95E2,1.5884387E-1,1.48E0,7.016927E-1,1.41E0,2.3464164E-1,1.2E-1,2.67E2,9.01E2,6.75E0,3.8703704E0,1.61E0,-8.7633304E-2,1.75E0,9.74E2,2.0867828E-1,1.8095647E-1,4.84E0,1.9E0,6.5623015E-2,4.6E-1,1.67E0,3.15E0,4.84E0,2.8714108E-1,2.1863356E-1,4.743833E-2,1.56E0,1.53E0,1.6588357E-1,-6.668388E-2,-7.939206E-2,9.98E0,8.13E2,1.4266182E-1,2.5165564E-1,2.1950394E-1,1.53E0,1.38E0,1.84E0,3.2891896E-2,1.87E0,1.86E0,-8.842607E-2,2.32E0,2.18E2,2.8753698E-1,2.84E0,1.66E0,3.1261563E-1,2.13E0,2.02E0,9.18E2,-7.611255E-2,4.8413356E-3,-5.9214372E-2,-1.0983014E-2,-7.3861174E-2,-5.954292E-3,6.841355E-2,1.9525124E-2,-3.5070196E-2,3.4337293E-2,3.9062936E-2,-5.2829217E-2,5.947459E-3,-4.0480483E-2,4.9480605E-3,5.5670198E-2,1.3818677E-2,6.6391125E-2,-6.650325E-2,2.7557416E-2,-1.9413613E-3,6.784906E-2,-7.751363E-2,1.3198253E-3,-6.5899E-2,2.0286635E-2,-1.24868555E-2,5.5315603E-2,3.637963E-2,-1.9309817E-2,1.0299729E-2,-6.936853E-2,-4.2906016E-2,4.124646E-2,7.854879E-3,-1.0728456E-2,2.2929573E-2,-1.815666E-2,-1.08648635E-1,-2.7263E-2,-5.189495E-3,8.77725E-3,1.3199978E-2,5.7361282E-2,-9.394876E-3,-4.5298804E-2,-8.957729E-3,2.9410878E-2],"split_indices":[4,17,17,17,4,4,17,5,0,3,10,4,6,17,17,2,13,10,0,8,17,4,4,0,10,0,6,10,2,0,4,4,12,0,0,4,0,0,6,17,4,13,4,10,0,10,0,0,11,0,10,17,4,0,6,3,10,10,17,0,0,0,0,0,0,0,0,0,0,0,0,0,0,0,0,0,0,0,0,0,0,0,0,0,0,0,0,0,0,0,0,0,0,0,0,0,0,0,0,0,0,0,0,0,0,0,0],"split_type":[0,0,0,0,0,0,0,0,0,0,0,0,0,0,0,0,0,0,0,0,0,0,0,0,0,0,0,0,0,0,0,0,0,0,0,0,0,0,0,0,0,0,0,0,0,0,0,0,0,0,0,0,0,0,0,0,0,0,0,0,0,0,0,0,0,0,0,0,0,0,0,0,0,0,0,0,0,0,0,0,0,0,0,0,0,0,0,0,0,0,0,0,0,0,0,0,0,0,0,0,0,0,0,0,0,0,0],"sum_hessian":[2.2468418E3,4.0924945E2,1.8375923E3,2.3176653E2,1.7748291E2,8.59298E1,1.7516625E3,2.097038E2,2.2062733E1,6.70298E1,1.1045311E2,6.679888E1,1.9130924E1,5.397953E2,1.2118672E3,1.3623654E2,7.3467255E1,1.3396335E1,8.666399E0,1.248196E1,5.454784E1,1.6376297E1,9.407681E1,4.118641E0,6.2680237E1,3.7510815E0,1.5379843E1,4.7916638E2,6.062891E1,1.00707416E3,2.0479309E2,1.3894029E1,1.22342514E2,6.6366776E1,7.100479E0,1.1154595E1,2.241739E0,8.334815E0,4.1471457E0,4.83367E1,6.2111382E0,1.3421364E1,2.9549327E0,6.1275725E0,8.794924E1,2.8941264E0,1.2245147E0,2.2259998E1,4.042024E1,2.3954458E0,1.2984397E1,2.8235163E1,4.5093124E2,3.4586994E1,2.6041916E1,9.550348E2,5.2039345E1,1.2640624E2,7.838685E1,1.2172885E1,1.7211436E0,1.0368333E1,1.1197418E2,3.2394116E0,6.312736E1,4.1623573E0,2.9381216E0,4.2856355E0,6.86896E0,2.6749127E0,1.4722333E0,2.6255297E1,2.2081406E1,1.8425287E0,4.3686094E0,1.458247E0,1.1963118E1,1.7370081E0,1.2179247E0,1.978239E0,4.1493335E0,5.6651425E0,8.2284096E1,1.7338201E0,1.1603062E0,1.9007511E0,2.0359247E1,2.7768415E1,1.2651824E1,1.1253904E1,1.7304927E0,2.4580368E1,3.6547942E0,3.1397946E2,1.3695177E2,1.7367468E1,1.7219526E1,8.712195E0,1.7329721E1,1.9058633E2,7.644484E2,4.25571E1,9.482248E0,9.0054726E1,3.6351517E1,1.3474562E1,6.491229E1],"tree_param":{"num_deleted":"0","num_feature":"18","num_nodes":"107","size_leaf_vector":"1"}},{"base_weights":[3.4283716E-2,8.384539E-2,-1.8565784E-1,4.5361054E-1,7.0998855E-2,-4.1313207E-1,-9.7734205E-2,5.26627E-1,-6.636523E-2,6.426592E-2,6.127893E-1,4.551177E-1,-5.163531E-1,-2.1286643E-1,1.5938154E-1,6.452872E-1,-9.2146754E-2,-7.895055E-1,6.826737E-2,8.7887484E-1,-9.313071E-2,7.754776E-1,-1.2839884E-1,-4.468645E-1,-1.2386206E0,-1.7485823E-1,-7.724319E-2,7.0585513E-1,1.3211168E-2,7.358258E-1,-1.2422462E-1,-1.1970274E0,8.693238E-1,8.880914E-2,-9.133796E-2,8.845319E-2,-8.678973E-2,9.9266684E-1,-3.382142E-3,3.7534824E-1,-7.26501E-1,-1.7311157E-1,5.7469286E-2,-5.5691767E-2,2.6237195E-2,-3.472738E-1,-9.6383023E-1,-2.7906787E-1,-7.856642E-2,4.3125623E-1,-2.2809413E-1,-4.419266E-1,8.917003E-1,-1.2246789E0,1.5031345E-1,6.368222E-2,2.8433252E-2,-7.349645E-2,4.886796E-2,2.308958E-2,-8.896556E-2,5.3334184E-2,4.814907E-3,5.4061055E-2,-3.6199115E-2,-2.2913998E-3,7.341E-3,-1.4290507E-2,1.8161327E-2,1.0560965E-2,5.3177226E-2,3.633886E-2,-9.053546E-3,-7.022021E-2,1.6145756E-2,2.4404362E-2,-3.947375E-2,-1.9642087E-2,3.7340637E-2,-2.4296552E-2,-6.137119E-2,-5.1717516E-2,3.0663768E-2,-1.9373253E-2,5.947979E-2,-4.298244E-3,-2.7094802E-2,-6.03018E-2,2.6676366E-2,5.3108126E-2,-1.0429586E-2,-8.543637E-2,3.652891E-2,1.2604104E-2,-3.2284874E-2],"categories":[],"categories_nodes":[],"categories_segments":[],"categories_sizes":[],"default_left":[0,0,0,0,0,0,0,0,0,0,0,0,0,0,0,0,0,0,0,0,0,0,0,0,0,0,0,0,0,0,0,0,0,0,0,0,0,0,0,0,0,0,0,0,0,0,0,0,0,0,0,0,0,0,0,0,0,0,0,0,0,0,0,0,0,0,0,0,0,0,0,0,0,0,0,0,0,0,0,0,0,0,0,0,0,0,0,0,0,0,0,0,0,0,0],"id":18,"left_children":[1,3,5,7,9,11,13,15,-1,17,19,21,23,25,27,29,31,33,35,37,39,41,43,45,47,49,-1,51,53,55,57,59,61,63,-1,65,67,69,-1,71,73,75,-1,-1,-1,77,79,81,-1,83,85,87,89,91,93,-1,-1,-1,-1,-1,-1,-1,-1,-1,-1,-1,-1,-1,-1,-1,-1,-1,-1,-1,-1,-1,-1,-1,-1,-1,-1,-1,-1,-1,-1,-1,-1,-1,-1,-1,-1,-1,-1,-1,-1],"loss_changes":[2.4892405E1,8.818092E0,8.359706E0,8.809493E0,6.5331907E0,1.0700365E1,9.039652E0,4.5111923E0,0E0,6.137581E0,4.2140274E0,2.5183065E0,4.70805E0,1.0389794E1,7.5523415E0,3.6445656E0,1.2334117E1,7.8028536E0,5.5582924E0,1.7982616E0,2.3278909E0,3.2120337E0,4.0883164E0,4.6695004E0,2.3186579E0,6.7403774E0,0E0,4.6513653E0,1.3032828E1,3.3910065E0,1.066365E1,6.0059977E0,8.529048E-1,5.2151403E0,0E0,1.2308628E1,1.8444122E1,5.735712E-1,0E0,1.0390688E0,2.7908719E0,1.7183481E0,0E0,0E0,0E0,4.434395E0,1.3103571E0,2.9524562E0,0E0,1.099449E1,8.422106E0,3.214834E0,3.5054045E0,8.496307E0,5.7563143E0,0E0,0E0,0E0,0E0,0E0,0E0,0E0,0E0,0E0,0E0,0E0,0E0,0E0,0E0,0E0,0E0,0E0,0E0,0E0,0E0,0E0,0E0,0E0,0E0,0E0,0E0,0E0,0E0,0E0,0E0,0E0,0E0,0E0,0E0,0E0,0E0,0E0,0E0,0E0,0E0],"parents":[2147483647,0,0,1,1,2,2,3,3,4,4,5,5,6,6,7,7,9,9,10,10,11,11,12,12,13,13,14,14,15,15,16,16,17,17,18,18,19,19,20,20,21,21,22,22,23,23,24,24,25,25,27,27,28,28,29,29,30,30,31,31,32,32,33,33,35,35,36,36,37,37,39,39,40,40,41,41,45,45,46,46,47,47,49,49,50,50,51,51,52,52,53,53,54,54],"right_children":[2,4,6,8,10,12,14,16,-1,18,20,22,24,26,28,30,32,34,36,38,40,42,44,46,48,50,-1,52,54,56,58,60,62,64,-1,66,68,70,-1,72,74,76,-1,-1,-1,78,80,82,-1,84,86,88,90,92,94,-1,-1,-1,-1,-1,-1,-1,-1,-1,-1,-1,-1,-1,-1,-1,-1,-1,-1,-1,-1,-1,-1,-1,-1,-1,-1,-1,-1,-1,-1,-1,-1,-1,-1,-1,-1,-1,-1,-1,-1],"split_conditions":[4.35E0,2.8E1,1.6588357E-1,2.32E0,3E0,4.4E1,6.64E2,3.13E0,-6.636523E-2,3E1,8.26E2,1.28E0,1.6248374E-1,2.2158167E-1,7.86E2,4.07E0,3.79E0,1.15E0,9.01E2,3.4E0,3.1E0,1.2E0,1.48E0,8.79E0,6.95E0,1.35E0,-7.724319E-2,3.96E0,8.2E2,1.86E0,1.97E0,3.36E0,4.48E0,2.5E0,-9.133796E-2,3.42E0,2.9284707E-1,1.99E2,-3.382142E-3,2.32E0,2.38E0,1.644E1,5.7469286E-2,-5.5691767E-2,2.6237195E-2,8.31376E-1,1.25E0,6.5E0,-7.856642E-2,5.4E2,5.09E2,1.72E0,8.05E0,1.96E0,4.506757E0,6.368222E-2,2.8433252E-2,-7.349645E-2,4.886796E-2,2.308958E-2,-8.896556E-2,5.3334184E-2,4.814907E-3,5.4061055E-2,-3.6199115E-2,-2.2913998E-3,7.341E-3,-1.4290507E-2,1.8161327E-2,1.0560965E-2,5.3177226E-2,3.633886E-2,-9.053546E-3,-7.022021E-2,1.6145756E-2,2.4404362E-2,-3.947375E-2,-1.9642087E-2,3.7340637E-2,-2.4296552E-2,-6.137119E-2,-5.1717516E-2,3.0663768E-2,-1.9373253E-2,5.947979E-2,-4.298244E-3,-2.7094802E-2,-6.03018E-2,2.6676366E-2,5.3108126E-2,-1.0429586E-2,-8.543637E-2,3.652891E-2,1.2604104E-2,-3.2284874E-2],"split_indices":[1,17,4,10,10,17,17,0,0,17,17,0,4,4,17,1,1,6,17,10,10,0,10,1,6,0,0,6,17,10,10,1,0,0,0,1,4,17,0,0,0,2,0,0,0,3,10,6,0,17,17,0,2,10,14,0,0,0,0,0,0,0,0,0,0,0,0,0,0,0,0,0,0,0,0,0,0,0,0,0,0,0,0,0,0,0,0,0,0,0,0,0,0,0,0],"split_type":[0,0,0,0,0,0,0,0,0,0,0,0,0,0,0,0,0,0,0,0,0,0,0,0,0,0,0,0,0,0,0,0,0,0,0,0,0,0,0,0,0,0,0,0,0,0,0,0,0,0,0,0,0,0,0,0,0,0,0,0,0,0,0,0,0,0,0,0,0,0,0,0,0,0,0,0,0,0,0,0,0,0,0,0,0,0,0,0,0,0,0,0,0,0,0],"sum_hessian":[2.281138E3,1.8621414E3,4.1899655E2,6.1371105E1,1.8007703E3,1.1577279E2,3.0322375E2,5.963058E1,1.740525E0,1.7797714E3,2.0998959E1,1.1938895E1,1.038339E2,2.0955884E2,9.366492E1,4.9999493E1,9.631087E0,7.386749E0,1.7723845E3,1.5072578E1,5.92638E0,7.495031E0,4.4438643E0,9.619753E1,7.6363626E0,2.0484492E2,4.7139225E0,1.8958298E1,7.470662E1,4.4775154E1,5.22434E0,4.367336E0,5.263751E0,4.4949465E0,2.8918025E0,1.5686078E3,2.0377681E2,1.3411471E1,1.6611072E0,3.6408021E0,2.2855778E0,2.2708929E0,5.224138E0,1.4901844E0,2.9536798E0,8.206073E1,1.4136808E1,2.4394865E0,5.196876E0,1.5965845E1,1.8887907E2,2.449881E0,1.6508417E1,6.658125E0,6.804849E1,9.047306E0,3.5727848E1,2.2010906E0,3.0232496E0,1.1884868E0,3.1788492E0,3.890574E0,1.3731773E0,1.8751483E0,2.619798E0,4.7530814E2,1.0932997E3,1.4154375E2,6.2233063E1,1.4462446E0,1.1965226E1,2.0437937E0,1.5970086E0,1.1830668E0,1.102511E0,1.1960055E0,1.0748874E0,7.939492E1,2.665802E0,6.0363326E0,8.100476E0,1.2350209E0,1.2044655E0,7.9124446E0,8.053401E0,1.3087585E2,5.800322E1,1.2412105E0,1.2086706E0,1.4323941E1,2.1844761E0,5.4379725E0,1.2201526E0,6.094065E1,7.1078396E0],"tree_param":{"num_deleted":"0","num_feature":"18","num_nodes":"95","size_leaf_vector":"1"}},{"base_weights":[1.1619717E-2,-2.3125845E-1,5.598307E-2,-1.9873793E-1,-8.394618E-1,-1.7790061E-1,8.379849E-2,-1.5183005E-1,-5.973264E-1,-2.317643E-1,-6.1241712E-2,-1.500598E0,-1.0425573E-1,6.862427E-2,3.5517627E-1,-2.0076741E-1,3.3149946E-1,3.6969247E-1,-8.786955E-1,-4.744029E-2,3.728229E-2,-8.925583E-2,-3.9568087E-1,-3.3038366E-1,1.2463935E-1,6.325858E-2,9.1207224E-1,7.903771E-1,